,AE_latent_0,AE_latent_1,AE_latent_2,AE_latent_3,AE_latent_4,AE_latent_5,AE_latent_6,AE_latent_7,AE_latent_8,AE_latent_9,AE_latent_10,AE_latent_11,AE_latent_12,AE_latent_13,AE_latent_14,AE_latent_15,AE_latent_16,AE_latent_17,AE_latent_18,AE_latent_19,AE_latent_20,AE_latent_21,AE_latent_22,AE_latent_23,AE_latent_24,AE_latent_25,AE_latent_26,AE_latent_27,AE_latent_28,AE_latent_29,AE_latent_30,AE_latent_31,AE_latent_32,AE_latent_33,AE_latent_34,AE_latent_35,AE_latent_36,AE_latent_37,AE_latent_38,AE_latent_39,AE_latent_40,AE_latent_41,AE_latent_42,AE_latent_43,AE_latent_44,AE_latent_45,AE_latent_46,AE_latent_47,AE_latent_48,AE_latent_49,AE_latent_50,AE_latent_51,AE_latent_52,AE_latent_53,AE_latent_54,AE_latent_55,AE_latent_56,AE_latent_57,AE_latent_58,AE_latent_59,AE_latent_60,AE_latent_61,AE_latent_62,AE_latent_63,AE_latent_64,AE_latent_65,AE_latent_66,AE_latent_67,AE_latent_68,AE_latent_69,AE_latent_70,AE_latent_71,AE_latent_72,AE_latent_73,AE_latent_74,AE_latent_75,AE_latent_76,AE_latent_77,AE_latent_78,AE_latent_79,AE_latent_80,AE_latent_81,AE_latent_82,AE_latent_83,AE_latent_84,AE_latent_85,AE_latent_86,AE_latent_87
ACH-000242,0.79957116,3.1000838,-2.5033205,-0.010685202,-4.348347,0.020142099,7.0995092,-4.538309,2.3368313,1.1970972,0.32903543,-2.229403,-1.2927115,6.847914,-0.027173677,-0.057166263,-3.664322,-4.315751,4.9970937,-2.9353423,0.2056081,-3.3364954,1.2421366,0.98079306,0.10208977,1.0677379,2.4787748,4.664428,-3.4807553,-5.5177965,-10.448124,1.9372009,-0.63104206,5.257542,0.7347095,1.2391737,3.6214774,1.1201556,-1.0978436,7.5752306,0.7737871,-4.341574,-2.209793,1.2915713,3.664596,5.0724263,2.4885933,4.6765747,0.4046151,0.90317947,-3.6369553,6.1821346,0.022905791,2.126746,2.362202,-5.009756,-5.4121175,1.8042485,4.7019205,-2.2947073,-5.603954,0.29498643,-2.3729546,-0.88220334,4.3297005,-1.9348335,-5.1771393,2.130181,4.4398518,3.0162106,-1.8052657,-3.336037,-0.66791743,-1.742427,1.1947336,-0.07730073,-0.9692052,-0.11644316,0.6977986,-0.21061286,0.9817471,-2.0620952,1.4915706,0.4388122,3.0531225,-1.5621736,1.3089242,-0.27467954
ACH-000233,-0.036003605,-5.2430806,-13.696405,-0.40119472,-7.790251,-8.713765,-2.2253177,-2.3992963,-1.7493615,-0.8761472,3.1665797,-1.16239,7.452932,1.6815306,2.787604,6.5613685,0.9040367,-0.80638796,-0.7633503,6.2438874,-0.08471618,1.3064295,4.703605,-4.592641,0.90795434,1.6463317,0.6792259,-3.3978593,5.1937766,2.0302968,2.7836132,2.1403706,0.51302475,-0.39470273,2.7317948,-1.6902286,-7.611907,-1.4348801,0.11635229,-1.1563196,1.4488603,5.0106344,9.616422,-0.11349707,0.08695582,3.388178,4.3259087,-4.0330844,1.3096819,4.912863,-1.4345202,-4.147221,-1.6283885,5.1002846,-1.1979686,4.060104,0.098523915,2.4596791,-3.2922044,0.3724008,-1.004104,-1.1450077,5.339775,0.8143205,-5.6307864,-1.7575986,9.051394,1.6908227,7.232464,1.9793707,-10.617872,-4.5940547,0.038231403,-0.5293113,-1.7464095,1.8720365,-3.1705298,-2.4210465,1.6688386,-0.7170042,-0.28559983,-0.3446324,2.5514872,-1.4521859,-2.435452,1.3945326,1.5555413,2.635289
ACH-001655,8.23524,5.4565268,-7.346864,2.728355,-9.284869,6.731721,1.0066462,0.39962938,-2.853622,-5.10719,5.1703057,4.9975095,-2.995145,-0.53652585,4.0632687,3.2483737,0.06480752,0.5706512,1.0210185,4.4660273,-0.02225796,-1.6807208,2.5278351,-4.056732,-2.8699658,4.110021,-7.3698444,-2.4206197,5.85351,-0.7525325,-2.2573104,-1.1724824,-7.2708406,0.70508575,0.14890608,-0.22470406,-2.5205376,-3.9700086,-1.8702631,-3.029478,5.344004,-1.5015637,9.594438,5.679795,-4.7431636,8.420877,1.5538697,3.5508962,1.6102891,-0.24602531,-0.40679926,3.3030667,3.3091881,2.0444796,-1.5823741,2.1764853,-0.13186987,3.0436351,1.540338,-2.236535,4.3225403,-3.219783,2.5691557,-0.06890129,-0.9181489,0.59143984,7.353953,-0.21570824,1.7522482,0.4273782,1.1679713,8.757575,-4.8654904,0.0070358813,-2.9667444,0.35117155,1.8967052,-5.525048,-2.2529938,-3.1125152,-1.6264622,-3.0311556,3.8655913,2.3174443,-0.23665494,-0.8963808,6.6535506,-3.4631052
ACH-000792,9.290836,7.067263,-10.60092,-7.3184323,-6.438448,2.700925,4.110185,-4.597243,0.1304943,1.1942095,1.9897461,1.0522585,0.99939835,6.1038337,1.1837692,4.510532,0.5529176,-0.44415402,-0.9633058,3.9398298,2.6699307,1.6418934,3.0136678,-6.1051397,-3.7380989,-2.149824,-3.6389081,-5.1633763,7.9525204,-1.5528854,-2.1121953,-0.5899918,-5.0142937,2.1486056,-0.8327784,1.8218013,-0.74604255,-4.5856395,-2.7470934,0.7784778,7.7106113,2.361109,7.0818076,3.0523403,4.29869,2.1440706,-2.4532542,3.2749913,-1.128953,0.9839047,1.8710972,-1.6179045,0.88885736,8.163887,-1.9774231,1.2902575,5.268707,0.7372911,0.8628444,-6.254901,0.3120454,-5.7286305,-0.70642155,-1.5385134,-2.9452074,1.7058274,1.336485,-0.71768165,5.4870596,6.1028786,-4.2866044,4.932033,-1.8670635,-0.37017632,-1.2595441,1.7322061,1.1272383,-5.2813215,0.017966062,-1.2861639,-2.7412794,-1.101901,3.7808893,1.3956821,-0.1947451,-2.196188,3.138483,-2.394941
ACH-000351,7.8679023,2.684877,-12.8439,1.7004502,-8.637157,-0.5850878,-3.0810246,3.3720965,1.0233492,1.6023922,3.1439154,-4.8486776,2.0962381,0.37355176,-2.5019324,0.76843756,-2.0906017,-2.420816,3.610355,2.2236645,-0.40541813,4.7013073,-1.6570526,1.6589624,3.7064736,-2.603455,-4.688816,-3.9377816,4.4797235,1.9491879,3.739954,-3.645707,-1.66796,1.9589747,-2.2968202,1.91206,5.663895,-3.6376748,3.6356692,2.884665,8.584961,0.61602634,3.1176634,-2.6846936,-2.7501867,4.5191584,-5.448594,-0.15638913,6.922578,-3.3282466,3.9178803,3.0535474,2.5133083,5.1514487,-1.4771612,4.0007486,-2.2683947,-3.842514,1.5756087,0.7284698,-0.7968198,-1.875504,-3.1030314,4.1328993,-4.6812997,-0.18571325,-1.1887629,-5.2268295,-0.36739728,3.7831588,2.5292306,2.978362,0.679885,0.8839117,1.0210164,-0.42133886,-0.10120723,-2.5246263,-0.75995696,1.0174685,-0.5948903,-2.1663847,3.8314574,-1.0461894,1.2683712,0.77014506,2.6285384,0.018823981
ACH-000769,1.8238691,3.730822,-4.813816,-1.2360713,-0.92543316,-2.442757,-0.8746275,-0.91667336,0.5803918,0.52947456,-6.4202285,-7.9234414,-3.158601,3.5187685,2.0604,2.5023186,-1.0569335,-6.600192,0.5058409,-2.089579,0.24576774,3.208548,-0.14210963,-0.9205797,-4.7707686,-0.13543569,-1.7686458,6.7429395,2.677674,-0.9272183,-7.5303106,-1.7253807,5.316503,0.043356497,-3.2335653,-4.1615906,2.5526552,3.4516168,1.0842792,-2.0557675,-1.3898323,-7.1972413,-1.1048272,-1.7486079,-0.542633,5.6745496,2.7545838,0.64511836,-2.6707757,0.13713394,3.456088,7.598697,-1.9948641,-5.3148537,6.1677923,-5.075874,0.9921886,-1.5078703,2.704672,-1.5462921,-3.1403828,-3.6280777,-2.1784818,-4.300282,5.1432157,-1.4110415,-2.5469732,1.4947499,-0.14656559,-6.4446335,6.9105263,2.1743815,-1.3479931,-0.46484226,1.253068,-1.6619241,-2.970908,-0.5615914,-0.9116849,-0.9669379,1.1120743,-3.9440236,0.7192832,1.1863914,0.8412243,-0.15105835,-2.5680416,-1.106868
ACH-000828,-4.0376062,-1.0589241,-4.9876313,0.12878767,-4.4542017,0.6528992,-0.6749294,0.54043305,0.2807528,-0.30223238,1.280048,6.8876486,5.947232,2.0899966,-2.3036706,-3.9310505,-5.682252,-3.798892,0.524525,-1.1320866,-1.8119063,-6.6544247,-2.4546494,2.7637486,1.6349604,3.112099,5.3570433,1.620488,1.3604913,-5.276509,-6.315157,-0.9890838,-2.2962134,-1.0981407,0.369043,-4.920029,4.9895406,2.1353257,-2.7751625,4.1928806,-3.9231372,-3.8321338,-5.0244184,1.9097593,4.3931947,2.6649246,2.9707885,2.4675326,2.620886,-2.136333,-2.3181295,2.1938431,3.6096365,1.4161425,-0.32704553,0.13465407,-1.7799331,0.64783067,7.083961,1.0590589,-2.6453142,2.431855,2.0291963,0.94557565,5.3863573,3.6076324,-2.6261153,2.0701551,-4.1692066,2.4287918,-2.7486691,-5.6679263,-1.6019146,1.1730971,1.2466046,-1.663167,-1.5950937,1.8548867,-0.92287076,-0.63189733,1.8017612,-0.8847791,3.982352,-1.6298671,0.76431,-1.9558871,1.9707096,0.83199376
ACH-000421,-3.3187463,6.670108,-3.342644,-5.735887,-0.03938113,3.4250755,1.4322723,0.1297745,0.29128554,0.031370126,-0.15686059,-4.6169205,0.37789968,0.30234167,-1.3331532,1.4768574,-1.7986121,-4.1880093,1.7615536,3.5251522,-2.3079805,5.671525,-3.4478123,-0.61608744,-1.8809139,-4.4565864,-3.7168722,1.5354654,0.10762897,-0.7687111,0.8119721,-5.45904,-0.5118457,0.69544667,-1.924789,-0.088493936,4.1335826,-1.5989593,2.7412858,4.390532,3.9736774,-2.3416202,-1.4242089,-1.8933457,-2.6406085,0.85494125,-1.8516884,0.5123682,0.9731416,1.6192651,0.9850574,4.0299044,2.0299306,1.2052362,-1.9026144,1.0768896,1.6472174,-4.1606927,1.9531846,1.6930416,-5.027815,-1.738139,-5.568764,2.4979532,-0.2718605,-1.6867822,-3.7414734,-0.125518,-2.9321773,4.907444,3.0147197,-2.4957063,0.24162802,-2.5281699,2.0340772,0.4305645,-1.3764842,-0.95929205,0.3932924,0.809582,1.5461298,-1.5976706,1.0300714,1.1717277,2.216059,-1.4733329,1.474652,0.016377687
ACH-000008,-1.4336411,3.8671126,-8.559921,-6.8218784,-2.0414433,1.059991,-2.999659,2.7267456,0.34258717,2.6703844,2.3480678,-1.2162508,-4.1113105,0.70095176,-0.7480069,-5.6096945,1.8158079,1.2853897,-3.203537,2.3985095,-0.7309307,3.6331809,-2.6140683,0.21023004,0.4754316,-0.978062,-6.781709,-0.1664513,1.1352402,2.268847,-2.859786,-1.2219718,-3.715255,-1.1675587,2.2005973,-0.90976256,3.875668,-1.8192441,-4.1588254,-3.1430566,7.349103,-0.6480579,3.731123,-0.177113,-4.6975174,2.2640667,-4.410072,3.6382163,-0.28477338,-5.036766,1.3759823,1.4060688,-1.2514601,3.1411793,0.098634936,1.2835115,1.0245835,-0.64659286,-2.8477442,-2.618952,2.1008506,-2.3311803,3.5917253,-0.0884752,1.4131501,4.8913746,0.77912664,-5.8429527,-0.5830938,0.2385272,1.1837343,3.2701387,-1.5892994,0.6998011,-3.0140896,1.3379979,-0.10115278,-2.865074,-0.14820303,-2.6646369,-2.2052333,-3.0487103,1.7691429,-0.2268587,0.5239787,0.44927084,0.63199866,0.34754705
ACH-000800,0.6392008,3.426702,-11.5324135,-3.2369711,-4.6838174,-4.8932996,-1.9687241,-1.685622,-1.1604364,0.39952102,-2.5905685,1.6754972,-8.864918,-7.3791294,7.2634406,-3.6642783,6.172262,2.6030388,4.304616,-9.805511,2.3285613,0.84548175,13.096822,7.051088,-0.5826439,2.2090094,-1.0542315,4.1594405,5.3990965,1.7240406,-1.3243318,-2.112263,-4.170907,0.043306645,-6.844982,-7.3306293,-5.1576605,-3.3357463,-4.1334996,2.4108498,9.16709,-7.137141,13.912219,6.4842796,-2.1970973,-2.6683376,-5.609232,1.3612705,4.300628,2.265008,0.9091663,1.2336882,-9.194783,5.25441,3.2499878,4.576613,-2.738434,-0.10897255,-6.700064,5.5056906,7.3470917,-1.8984541,5.2706366,2.6676674,-2.1578994,0.31814566,0.21532701,-9.397222,-7.3408747,-11.15343,2.8532526,3.9333897,-2.0654292,0.0846854,1.2442313,-1.3147559,-1.0937259,-0.14752437,-1.9733719,0.7672293,1.9323994,-3.082429,0.44057134,0.49408066,-1.9891613,1.6645432,-2.0958433,-0.24128288
ACH-000823,5.972545,-3.459815,-7.236782,1.6818517,-5.220667,-8.08007,2.8844283,-4.8874474,1.3318225,-4.1025443,-1.5825057,-5.8735123,-1.4299598,1.2544096,4.6080594,1.8753309,-1.7194147,-0.45904714,3.8918128,0.5053236,5.058555,3.8228307,0.6766945,-0.13959411,-4.364822,-2.187743,-3.7128196,-1.3691186,4.5459824,-4.156988,-6.667996,-1.0959129,1.8075535,2.145035,-5.7726855,-2.1455674,9.057789,1.8908147,-0.77131295,-4.083824,-1.165925,-2.9168587,0.560182,-1.5461296,0.32866257,9.250382,-3.5349991,-3.2571032,-0.7262092,-0.61636025,2.616169,2.790841,2.1840787,2.6156452,6.4539657,-3.224991,-0.43610805,-4.9792824,2.7734227,-5.2951903,-1.2285486,-4.2834244,-1.2333231,-6.381114,1.1326057,-0.72666967,-3.2763114,1.5833721,4.1690607,-6.8507643,6.8260655,1.2683061,-0.97676754,1.9981853,-0.5166381,-1.583801,-0.905769,-1.8664979,-3.8585582,1.6007211,0.13683236,-2.657662,1.5740302,0.777769,-0.41404632,-0.52454984,1.6296654,-1.7655976
ACH-000678,7.759688,2.436563,-12.873923,1.4368229,-8.61945,-0.62475955,-3.1251817,3.5683942,-3.4932947,-2.7206812,0.40038747,1.1506748,1.3602403,2.1771526,-0.7448188,4.321639,-2.4280806,0.52474,5.596294,2.7292063,-3.76443,-0.8440955,1.0398668,-0.1597299,-3.0900924,0.90362364,-4.6884,1.2916397,1.9918224,1.1897236,-4.8791375,-1.0893488,-1.162684,1.912601,-3.0297463,-2.5524457,2.3185306,-4.420844,0.6092137,5.8923335,4.7435985,-2.4540865,1.1483513,2.162677,-4.713463,4.291654,-1.3012433,1.309918,0.77398336,1.1901183,0.9683945,-1.6335819,2.3640883,-0.72592294,-1.5701052,0.33032295,0.8826754,-1.1876584,5.215109,1.9897804,-3.821376,-6.129988,-4.381995,0.5903586,-0.9734627,-2.9212587,3.3161166,-0.8513567,-1.0317119,5.1197605,-3.334481,-0.820748,-1.0013908,-1.6544888,-0.3697344,0.7623998,-0.39666188,-2.096606,-1.2985151,-0.9669577,-1.3961109,-1.4004517,1.6149784,2.1377723,2.174417,0.6583879,5.1378684,-1.3752708
ACH-000006,4.387669,-4.0426006,-6.255455,-1.1347941,-2.0318172,-4.776746,-1.6047212,-1.1634262,0.7955051,-0.48903224,-0.80566216,-0.75072676,2.2504556,-0.04866291,-1.1188359,-1.9609734,-3.7881908,0.7202995,-3.132965,3.2503793,-3.7581408,2.7483575,-4.6095414,-2.4500713,4.842078,7.4044085,4.60462,-0.3891454,2.9924998,-0.24758197,-1.9856765,0.14903332,-1.7582496,1.0675607,5.9263525,2.403097,-3.6882885,2.050103,4.15237,-2.8309996,1.0980854,0.9185541,4.6818414,-0.48393637,-0.67889553,-2.6340268,4.608823,1.4053879,4.635386,0.1934775,-0.9244193,-1.913982,-1.7623342,9.678706,1.7380817,3.244011,-0.7813745,0.102993645,-2.1576977,-5.8414335,-1.276533,-3.8953319,0.06516901,1.0841827,-1.5690978,-6.979535,7.625425,0.9587502,3.9798148,5.286156,-6.585185,-6.156288,-0.45306596,-0.36745518,-0.8156642,3.4530396,-3.1271117,-1.7540996,2.7622213,-0.5227735,1.262676,-0.32042632,-1.0374632,-0.0032446384,-0.6880332,-0.11441913,-0.6531231,0.8029295
ACH-002029,8.327605,2.3291457,-6.4426537,-8.9801235,1.0942955,0.08409914,0.2722279,-1.9493504,-0.965661,-4.0447435,0.016701901,-0.57013404,2.5444434,-0.28545046,3.4443424,2.4733322,-1.2568212,2.2744193,2.8811018,2.6548386,0.1261636,0.5513542,-0.31195235,2.6450965,-3.0577881,-1.787949,-3.0973496,-2.1875656,2.773165,-0.54198635,-2.1667204,0.92118317,0.55085796,1.5325046,-4.249852,-1.3111986,2.4258995,-0.5705312,1.1092232,0.33241516,-0.54874355,-0.6133123,1.2806915,0.34004346,-1.3222318,8.585133,-1.4262685,-0.7585952,2.49963,1.6906536,1.8735701,0.96322286,1.1697628,1.933743,0.7966514,2.483676,0.55453444,-2.174935,3.2756205,-2.3289063,-0.24470562,-2.8110743,-2.1268644,-2.2060246,-2.4872007,-1.1500933,1.7345821,1.8307005,4.2480354,0.21295184,-3.7280447,-1.4257562,-1.035616,-1.9232451,-0.7486866,0.41870585,-1.9568264,-3.185875,1.1164974,-0.5619749,0.8432577,-3.4379063,1.9515607,2.4578724,3.4993975,0.04889071,4.5410695,-2.2512972
ACH-000754,1.8186203,-3.3937087,-11.79134,1.0144452,-7.6192865,-3.9578178,-2.9211643,-0.1020447,-1.064632,-10.140127,1.899372,-0.25162196,-0.80638003,0.009052282,5.7127385,2.7703652,-2.112605,-0.7275564,-0.80513906,0.27199048,-0.89821917,-7.081307,5.385014,-4.17288,-1.2786088,4.69016,-1.0314993,8.688038,0.43947238,2.0322602,-5.324126,-0.79997176,1.5194263,0.4262143,0.5227989,-4.8880477,-2.3716488,3.7736075,-1.7566751,-4.700018,-5.542853,-2.0903802,3.4024813,0.48485756,-6.0439105,8.183156,5.622605,-3.4547253,0.4195532,1.6790805,-4.0026093,-0.5948692,7.1493244,-0.7623582,1.7813166,-2.7607474,-4.488026,-2.0181339,2.268245,2.0118237,-3.660743,-1.8574907,7.32833,-2.6229692,6.329496,-0.93093014,10.528196,2.3839295,3.8186479,-3.6893837,-3.9733827,-3.9400973,-1.5978351,0.1932748,-1.6545745,2.6719232,-2.039696,-0.327052,-0.2520501,-0.23765078,1.0332927,-1.478976,-1.4729103,0.4234808,-0.7458314,1.6153886,0.5413582,-0.1558407
ACH-000465,-2.6418846,2.7788262,-8.489712,-7.6169834,-1.4830247,0.22709334,-3.2151902,2.2377834,0.64302945,8.22977,0.56212115,-4.3879576,-2.423434,-0.7878974,-1.728317,-1.4365703,4.3938026,0.43990302,-5.449214,5.6279807,-3.9624262,5.8807793,-5.884826,-3.8621147,-0.68402445,-4.862321,-5.517934,2.8345382,-0.38524842,-0.3219269,0.90813285,1.1666319,0.119503446,0.6908355,-2.3352003,-2.8272994,1.3630038,-2.9780602,-3.5642588,-1.6003438,5.966602,-0.7934573,1.9985347,-0.06567525,-2.5995207,-2.6647055,-1.2051687,1.2429001,-0.87212384,0.26507872,2.8272824,-0.1947724,-7.6362367,-3.8536253,2.0244365,-9.025857,5.6085477,3.219852,-1.5411085,-2.100172,0.35491484,-7.632459,1.9997289,-0.37294707,3.6643162,1.96892,-2.312606,1.8144665,-5.3366547,1.3782827,3.941243,3.7829578,-1.761823,0.42870006,0.49928552,1.5038915,0.7604378,-0.41884044,-0.73960364,-1.6299531,-0.5991577,-2.7908435,0.8331665,-0.13027048,0.0013554543,-0.4124348,-1.5628169,1.2276595
ACH-000138,-1.6264921,2.1043963,-10.365141,-2.586695,-5.5313416,-3.2166135,-0.7992266,-1.0503237,5.5071,-1.0883329,2.1102226,-1.0150051,0.97853374,3.1768022,0.049134146,0.61330605,-3.2757733,1.2678086,0.13984767,-2.041347,-1.8587652,1.9639674,-1.787609,-1.0939673,-2.7348158,0.19968839,-4.8244796,2.5112665,-2.7960253,1.811834,-1.2473303,-1.0658989,-1.4969742,1.8730657,1.3740052,0.30388126,2.638704,-0.89012074,-4.3928847,2.277984,2.2702668,3.913623,-0.24570602,2.6060193,-1.8839698,1.6052754,-1.3356035,-0.1899701,-0.35000095,1.3652673,2.7156668,1.7132233,4.105183,4.9864583,-5.467683,-2.0118644,0.48425534,-1.9847178,-1.0117192,3.4155526,-3.4244003,-4.4564357,-1.5408725,1.4741955,-0.1668354,2.5828648,0.8372682,-4.9944625,1.7098957,5.0285254,-0.9862104,-3.0622118,-1.541476,-1.8947439,0.3080104,-1.1115029,-0.26648274,-5.2982616,-3.879726,-1.5670772,-3.0139294,0.50735533,5.978566,1.9111645,2.2390692,1.5787182,8.952844,0.11366865
ACH-000383,5.1068244,-2.9735723,-5.9252024,2.2138684,-4.787945,-6.5525465,2.3920112,-4.128027,1.3589635,-3.0665493,-3.3026757,-1.5913622,-2.364755,3.621192,-0.6969253,2.3188093,-4.305503,-1.3591306,-1.3064901,0.7984192,-0.22196889,2.7699575,-1.1916114,-1.4627538,-4.197813,-2.3975172,-3.1275053,2.5343797,-0.7594239,0.71245134,-0.98983634,-0.52016926,2.1102521,1.4587129,-0.7628394,-0.21968967,2.652073,-0.46076122,-1.1221126,1.5395894,2.5188556,1.863734,-1.55302,1.6581976,-1.758014,1.9213483,2.5839229,1.9006554,1.7646806,4.5530844,2.08881,0.51089275,4.6785107,1.1604391,-6.3685803,-3.0397842,-0.21194123,-1.09388,3.289224,2.9196937,-4.3158937,-2.089254,-4.3526764,0.6902686,2.6514952,0.629698,1.6850612,0.9365129,0.94571173,4.3619666,-0.8796265,-5.4543843,-0.6398382,-4.3289623,-0.9332967,1.7224569,-1.2852657,-1.8938566,0.5463737,-1.02653,-1.2860429,-1.1131793,2.1596537,1.6265302,4.480674,-1.9706696,3.1537046,-2.4335816
ACH-000917,7.213587,-2.9650764,-10.016187,3.8109858,-7.549641,-6.799872,0.44496408,-2.792869,3.0065207,-0.21184342,-2.1549268,-0.25805482,-0.4153779,2.043594,0.6540409,0.44986388,-4.8644223,1.2064342,-1.8239832,-6.188215,3.4858465,2.5498939,2.6324732,0.46467125,0.21383607,-2.7939024,0.93204087,-0.8538277,0.22796747,-1.4564859,-7.0407367,0.05582009,3.672069,1.652668,-1.8216344,-2.729862,6.8551145,1.051311,-0.73240674,-1.9015135,1.8552759,3.6653686,-2.8783453,6.140766,2.930576,3.6486068,-0.7105443,-3.949595,0.8567328,1.401306,1.2222337,0.2737077,0.09307094,3.8837736,-2.8214173,-2.217169,-1.2099661,-4.9165034,1.2647638,-1.8851298,0.78150094,-0.5662768,0.3188897,-2.1038346,0.3999092,1.5697572,-0.9673429,-3.144827,1.1874694,-1.9917723,3.652003,-7.471092,-0.5103742,-0.42979378,0.06385942,-2.229552,-1.7193823,-2.1864755,-1.433334,-0.5094358,-0.4299082,-2.6162214,3.0281537,0.8146209,2.6012583,0.08804613,2.3133492,-0.3046723
ACH-000117,-3.6911633,-1.7246722,-6.0827007,0.53523976,-5.771153,0.5863356,-0.60443115,0.6621217,-1.9509273,-0.11256495,-1.4963431,5.2658057,3.884001,-1.106956,-1.4623866,-4.122513,-4.8033934,-2.9943104,-0.7441184,-1.8411568,-1.1741278,-2.7425292,0.27833793,0.78598,2.53472,1.9566993,5.349821,-0.40274197,1.8514869,-4.9318767,-2.4209425,-0.7472524,-1.2749676,1.0176358,-1.2655299,-4.1051164,1.9214246,-0.77499086,-1.5367203,0.6640706,-2.5013516,-2.205698,-3.9460082,4.2498975,3.1511967,1.7952659,1.0466425,-0.5029316,2.1168334,-1.9094028,-1.4887052,1.1473095,-0.4993164,3.050312,-1.2366487,0.8088992,0.8094748,-0.082692705,6.585361,0.38033146,-0.7072506,1.0857964,0.9553676,0.63103396,0.5787434,-0.5904074,-0.63423944,0.73474026,-4.111092,1.3910195,-2.297473,-2.0177507,-1.2973032,2.01364,-0.3416201,-0.8774348,-1.6234214,2.9960434,-1.2791051,0.6556932,1.9127045,-1.2043808,2.4885566,-1.4806349,0.23529792,-2.139897,1.8096635,-0.30162352
ACH-000633,7.7984996,1.1179153,-10.314476,2.0232353,-7.905708,0.053740114,-2.5029795,1.9116514,1.7228148,3.1476572,-0.665656,-3.8869855,-4.0457115,0.55330354,0.53678906,1.9615171,-2.3318307,-9.0885935,-11.708423,5.897509,-7.4697948,5.0436916,-7.582133,-3.2482576,7.918544,-0.3697015,-1.4878776,6.8375373,-3.1325266,4.262322,-3.8780866,-7.247961,0.31105804,-2.2132626,6.218521,7.231359,-0.6958357,-0.7015213,7.9555335,-5.028599,5.344326,-1.025924,-1.2206347,-1.3683707,-7.603392,6.6716704,-3.716794,7.1291018,-1.7254856,-9.613019,1.0295419,10.694191,-3.3259006,6.637829,1.6780245,5.072035,2.4137309,-4.66823,7.5426836,-3.0972648,0.6609767,-2.9780111,0.37382957,-2.0196173,1.6028143,-4.0151553,0.3638027,5.130062,-3.8311112,5.7087708,5.9547067,6.209708,-0.53818375,0.69771636,0.26673448,0.92842627,-1.1096737,0.06381445,-0.34140345,-1.7096202,0.66431487,-2.630918,0.15209758,-0.49019766,-0.3546334,-1.1383114,-0.1419389,-0.37378955
ACH-000176,0.72842014,2.560648,-2.7365334,-0.14463367,-1.0073718,-0.92919606,-0.38786837,-0.8743623,1.1517254,2.4465332,-1.6115135,0.84512544,2.7161136,2.7235444,3.556558,1.9071509,-1.9711188,-0.32345134,2.3136606,-4.264304,5.2193794,-0.122795366,13.121572,-4.046628,1.3771137,-0.5037781,-4.6525197,-3.5895338,7.861003,-0.757876,0.1598113,1.19962,-4.5856495,2.746598,-5.809693,-2.9631574,1.2611135,-11.220521,-3.8159115,5.301094,9.731497,-0.5160293,8.555826,5.4145284,-0.49221206,1.641732,-1.021484,-0.7472466,4.172825,0.8055417,-0.3488918,-8.2780905,2.540949,1.8682928,-3.5962923,3.066935,-0.065119386,1.2833823,0.061151855,2.107066,2.0365913,-3.5311,1.7844255,2.2473264,-3.1675754,4.0307927,1.1272764,-6.3237047,-5.8025455,2.185543,-0.048262287,2.3266408,-1.0248129,-3.3023477,-0.6973826,1.5413258,0.9181803,-2.280562,2.1057868,-1.6544732,0.22487336,-4.4877405,3.3312995,-0.78918004,-1.3694451,-2.339922,0.46946377,-0.8369257
ACH-000020,6.585005,-5.2268467,-9.856925,0.2755406,-5.0329857,-4.5525694,-3.3633115,0.26017302,-2.5026093,3.32675,-0.34576553,-3.5416026,2.7578151,-4.160822,1.9697785,-1.7654407,4.4284935,-0.4173792,-6.2599635,1.3681526,-0.9106673,2.460496,-1.4980824,-2.6561112,8.374084,1.6361809,4.2769766,0.94632107,4.832328,-6.4922767,2.9625032,-2.404596,-2.9561224,4.559144,5.65306,-2.0951824,-8.182372,1.0462409,1.0492961,-2.9770486,-2.026362,-4.9336677,4.442602,3.1437557,1.2635201,-4.4881454,0.85856396,1.1892247,6.1030526,0.51405567,-4.1711006,3.3290577,-3.9798408,4.9068174,7.555712,-0.21039118,1.440786,-0.82853955,-0.66710997,-5.0718193,-3.713047,-5.7222786,2.3216603,1.0303812,-1.4304342,-5.052611,3.1048372,6.2960587,-3.4384382,-2.6852806,7.8022075,0.8774369,-2.0638077,-1.0844338,-0.6559905,2.7262404,-0.91537064,-1.5555946,0.8480251,1.7100317,2.277011,-0.8887037,-0.9738511,0.18812001,-2.1806276,0.74687016,-0.7040503,0.9030405
ACH-000587,0.8555471,2.3446696,-2.5930817,-0.10591149,-1.0006937,-0.8470942,-0.37520793,-0.7235967,5.72945,0.23740944,1.7661377,0.10000858,1.7760212,0.6262649,2.1269271,0.8097189,-2.897061,2.4056017,-0.1266566,-2.43335,1.8485649,-0.2299707,4.583607,-0.4129633,0.12442862,0.48778117,-2.1501722,-0.2602757,0.4277301,4.2892275,-0.8111193,1.1739217,-3.2556303,2.989436,-1.2335495,-1.8661599,3.6340868,-6.071721,0.7184911,1.7872014,5.3115726,3.6681976,2.6775475,3.1333923,0.61461663,0.34341612,-5.6466317,-1.7168322,1.8669605,-1.7158803,-1.908428,-4.361521,1.525572,6.911592,-7.1399474,3.4464023,0.10601111,-1.8658676,-1.4399363,4.129257,0.20381814,-3.6191192,-0.7248211,2.1203463,-4.70144,3.2162986,2.9500458,-6.0174065,-1.8938376,5.886266,-0.52162206,-1.902129,-1.272419,-3.4680166,-1.1252477,1.3519924,0.2597403,-1.2870735,1.3113145,-1.021186,1.1173453,-2.8301659,2.4540703,-0.17939115,1.0748941,-2.5827985,2.1144977,-1.946089
ACH-000554,-3.4852555,-1.8052233,-4.1425204,-0.050933193,-3.7194102,0.9685951,-0.6568217,0.18234977,-1.9423465,0.47584125,-2.5220306,4.309411,-1.0778011,-1.8190632,0.8014047,-6.821687,-8.373213,0.80360097,-4.693005,-7.436228,2.9635005,-3.8925962,5.069467,1.0164759,1.428819,-2.057759,5.3771353,-0.24635413,1.3803306,-5.0014634,-8.668063,2.5967119,0.12700297,2.2185624,0.16153099,-4.0459576,6.059187,0.9304115,-5.7647443,-2.9517357,-4.8213124,-0.20122646,-5.317854,8.540198,2.845968,3.7641196,1.7606497,0.18092711,3.6833644,-1.7922881,-1.1726319,1.2238489,0.5022637,5.430619,-3.8000956,1.3379275,-1.4375578,-3.9042315,5.5405283,2.0383637,2.5717905,1.0078601,6.109023,-2.240427,4.6048365,2.8002014,0.08644692,-4.2990007,0.76114255,-2.0235243,-1.9556035,-7.1094036,-1.4244969,0.45054474,0.66537285,-1.3406289,-1.4994278,1.840297,0.11557788,-0.31783852,2.0843933,-1.5147004,2.8904617,-1.0469295,1.4310182,-1.9539143,1.0364928,0.18744764
ACH-001332,9.126225,2.8476505,-7.682329,-10.138216,1.4301282,-0.34669408,0.10034531,-2.2309487,0.17222342,-3.7266545,3.3082726,0.38033497,4.541101,-1.2159133,3.97005,2.7875366,-3.4644306,0.9576179,4.737295,-1.8537283,-0.087269805,-0.7620284,1.8323386,5.11437,0.51734656,3.0187454,-1.4065756,-3.0703025,2.9596868,-4.0255547,-3.8566701,2.67843,-1.4577553,1.9585387,-4.616497,-0.46604088,3.5005744,-2.1973867,-0.1428485,1.5921518,-2.512963,-2.68834,0.684226,2.6788046,-2.115393,10.255739,-0.6983526,-0.5285082,4.595868,-0.9362505,1.1679838,3.3793457,1.3041341,3.1445873,2.158729,0.58094144,0.17804193,-2.6203327,5.6649103,-2.4015937,2.3426058,-3.1659286,-2.290598,0.3030385,-5.4395027,-3.380997,0.90939486,2.6353607,4.592956,-0.380702,-1.4572834,2.466927,-3.1201026,1.5039624,-1.7452832,-0.95006984,-0.48590314,-2.9267921,-4.0340424,-1.7493074,-1.145611,-2.8579688,3.1189508,2.3989186,2.369557,-0.35761678,7.2262883,-3.3424704
ACH-000585,1.7339476,3.9310122,-4.869629,-1.2420394,-0.9789204,-2.4707756,-0.8031615,-1.0704167,-0.18312788,-2.7464023,0.69429463,0.8689232,-3.0201042,3.5272977,1.0344441,2.7533083,-4.49231,2.5205412,2.7347705,-1.5688459,2.1111064,1.9328097,1.1578498,-0.68973815,-3.1272435,-0.28650817,-2.205518,-3.6249194,5.3809323,-3.350528,-6.1514378,2.1120784,-0.8032478,4.474817,-3.2560294,-0.32657915,3.456996,-2.7750275,0.07020778,3.1316962,4.5842595,-0.6035659,3.7981844,3.6097615,2.910856,7.348412,-3.003413,-0.6347202,1.3191013,-0.76343405,-1.5998203,-1.2112595,0.07776815,7.136858,0.23828812,-3.2458134,0.679285,-3.5886617,1.7984983,-5.322051,1.4574637,-3.4747005,-1.4076421,-2.782832,-0.7081179,0.12205025,1.3209717,-0.9659115,5.659906,2.0123103,-5.552105,0.14281894,-0.3672401,-3.033804,-2.8649585,0.9890008,0.27987593,-3.7780077,-0.09378086,1.2278321,-0.7415469,-3.034371,2.8416262,1.4210618,2.7763927,0.24475396,4.9497876,-2.6089542
ACH-000627,1.5089576,4.93208,-5.861533,-1.2372353,-1.0828164,-1.9400759,-1.7724241,0.18072326,2.1863103,2.2469006,-0.6892285,-1.4923906,-1.0276283,4.9017024,-3.1240845,1.7169341,0.34339643,-0.21086116,-0.0951913,0.7543431,-3.7682672,1.9830084,2.85397,-7.1335177,-3.5076544,-1.7474478,-2.5723176,-0.16352558,4.2918463,-0.7037398,-0.31380048,-2.166934,-2.8229322,1.5779226,-1.0475023,1.9558514,-3.664504,-3.3800452,-0.11556649,1.0235037,8.372211,0.53825426,5.097951,0.82316273,1.4809593,-1.1255636,-1.4959977,3.367477,-2.9810247,2.3799603,0.84343576,-3.0495994,-3.0375872,5.7217693,-3.694255,-0.71294427,3.967017,0.0130620375,1.1946946,-2.2869463,-0.75288445,-5.658847,-2.4901938,3.0797157,-1.9702312,0.7387986,1.8034443,-3.5097663,0.90319264,7.705912,-6.7310944,2.9221365,-0.31691718,-2.7999523,-1.148686,0.48859718,0.5714935,-2.7863708,0.2850944,-1.8763652,-1.7763729,-2.6482792,3.56512,-0.37896192,0.0781145,-1.6599051,1.9389818,-0.2798807
ACH-000704,-0.18680891,0.22997892,-6.9827538,0.8694173,-5.3101315,1.9054147,-3.3703837,2.7913716,2.1399152,3.4284282,-3.1192532,5.4849157,0.8976256,2.7116623,-1.5244819,-1.459194,-1.0897166,-5.763379,-9.006472,-2.1529894,-0.4851719,2.56791,2.536224,-7.149545,3.105511,0.1577972,-3.3564324,2.5840023,-1.1004106,-1.783619,-5.1469545,-4.8172536,-1.2757268,-2.2266152,0.747728,4.1630917,-1.4614319,-4.676886,-1.9236734,-4.861481,-0.33592397,2.8027368,0.5227635,6.3438506,-3.54616,6.0765743,-0.738318,1.8827109,-5.0549097,-2.273745,2.6145105,5.267659,2.3453953,3.8431194,-1.318096,-0.91236013,-0.21572745,0.24723074,8.446239,0.22946884,1.7116245,-2.067016,5.1547184,-2.6589828,3.513626,1.3736632,-0.87082267,3.209953,-5.549934,-0.25991467,4.578934,5.4915047,-1.3802954,0.52425194,-0.41691262,1.8441856,0.88320345,-0.6293609,-1.4426755,-2.8185298,-1.4330863,-4.111401,1.3734901,-0.009139389,2.150989,-1.5315502,0.6169688,-1.5975096
ACH-000276,-3.4899914,-1.8257879,-4.1630464,-0.06976773,-3.7342308,0.9940642,-0.66232264,0.19005567,3.5420258,1.7765783,1.6321855,0.7637469,1.9904323,0.82925594,-3.4447877,0.011219944,-4.9043555,1.6709987,3.319322,-6.9269323,2.9776955,5.98767,-0.15197486,-3.427247,-2.4822257,-1.9409069,-4.1087523,-1.5576205,1.8305451,-4.360363,-4.081941,-3.8153782,-1.6805669,2.5084295,-7.8713865,-4.238256,7.008384,-4.8668647,-1.0710801,2.9601822,8.665217,-2.1998854,0.51141363,5.4551105,2.008163,3.6326563,-6.83564,-0.10977177,3.8481758,0.7017161,3.762142,2.2618606,-2.594642,7.1849155,-1.6722401,-4.392697,0.86652833,-5.156145,3.0896308,-2.2938397,-1.6549281,-6.903052,-4.385732,2.7565637,-3.220202,0.4015433,-5.6975584,-5.577952,-4.415496,1.2472609,4.3520327,3.447956,-0.4954581,-2.5020268,1.297199,-0.3996392,0.7935588,-1.378352,0.35220078,1.9622923,2.5896587,-3.17213,3.8475358,-0.8425812,0.024760425,-0.9693788,1.5541112,1.2739042
ACH-000075,2.6913083,4.2103853,-5.687712,-13.018729,-1.7557534,5.8929024,5.0097604,-3.030638,0.96051437,7.5668044,3.7434683,-2.1653316,1.3400617,7.846627,-3.399531,2.0391774,0.31224063,-1.920741,-0.97387886,3.4649358,-2.5646503,2.739521,1.8349731,-2.0258992,1.7556803,-0.81787825,-6.2704263,-4.7131343,3.732472,4.141635,2.1928158,-0.020379981,-4.8447075,-1.6910628,0.48816648,0.9647074,2.6926303,-3.715044,-4.8410306,1.4830879,11.514921,3.9945645,7.0907965,0.4328713,1.252666,-2.739299,-0.9506023,0.09380333,3.4289205,-2.4733589,2.6390913,-3.9581275,-0.5079567,1.9568291,-1.588451,-0.4371415,1.2888528,4.1572967,-2.355462,-0.7806903,3.4702487,-3.8011348,4.059964,2.3876834,-3.1990962,6.881855,4.6251807,-4.9597325,3.9950786,3.8254464,-5.325186,2.914769,-2.7488475,-1.8837439,-2.5978172,1.8274395,0.77865034,-4.2396026,1.5871025,-3.0604553,-2.1253822,-3.0376582,4.024865,0.55275714,-1.3662734,-1.446829,0.79047996,-0.6087497
ACH-000818,-3.527499,-1.8818978,-4.2272997,-0.12309596,-3.7933245,1.0865896,-0.6647805,0.21525994,-3.4716218,2.4854448,-2.6218622,4.3908415,5.294976,-3.286457,-4.26068,-8.034268,-6.0324492,-0.45525205,-1.135791,-0.3302138,-1.4510986,1.4544461,-1.0101535,1.4289199,1.8113445,2.1131406,6.374246,-3.9512837,5.467395,-5.1419168,-0.40608835,-2.8264465,-2.203269,0.9960142,-1.4213566,-3.868939,5.291255,-1.4594167,-2.8254383,-0.9479228,-2.492531,-0.94036686,-3.5407553,3.2180684,3.35956,-2.0221524,0.439995,-3.558141,1.0622061,-0.23888189,-2.714654,1.9983214,0.33817282,5.961649,-4.6789618,-0.5898562,-0.3521766,-1.9900362,6.114608,1.6351033,1.1154625,1.5562944,0.36320463,1.3841629,-0.106827274,-0.4615948,-4.043855,-2.6396067,-5.330048,3.5334377,-1.8778605,-2.3821268,-1.0714958,1.5531394,0.90048987,-2.1465757,-1.7666535,2.290306,-1.2597425,0.77566916,2.6470554,-1.3228893,5.0422363,-2.1893961,-0.82117367,-2.5638566,2.0647874,1.642633
ACH-000392,1.4433125,4.653656,-5.855787,-1.4253188,-1.138164,-1.9781011,-1.7848023,0.36727524,2.6806068,-2.6770945,-0.35476843,1.4647225,-0.022259552,2.5886614,0.7596126,1.3679245,-2.956461,-2.3009417,-3.1492913,-2.2204254,-0.810011,-2.123455,-0.14218505,-4.326964,-0.7616128,0.116603,-3.059845,5.4927244,-3.7281852,0.42485347,-5.4475484,-0.59733605,2.062453,0.11750108,0.7485886,0.43771988,-0.15294835,-0.17116581,-2.713491,-0.11919947,-0.43573588,-0.17894615,-0.9695906,2.340577,-3.3179286,5.598868,0.3952035,1.1933045,-2.1564677,3.119006,-0.13520779,2.5154614,3.6283386,0.5312725,-3.6232438,-1.3392041,-0.42539614,-1.7363553,3.3065956,1.3226779,-4.1482015,-0.9263167,1.9106431,-0.3601443,3.8988822,1.3071336,1.448682,-0.024882257,0.78632116,1.2917243,0.6236534,-2.2743056,-2.5181253,-0.6254891,-0.059361935,-1.6708171,-0.739032,-4.3002963,-4.614647,-2.2872992,-3.0507786,-0.75674886,2.6627522,3.9732149,2.954988,0.24186218,8.216074,-1.5749247
ACH-000269,1.956462,3.6312156,-4.1160245,-6.7434835,-0.61434305,0.7701059,3.0837412,-3.9735389,-0.16391514,-1.7307425,1.926876,-1.5066749,-5.309052,3.179483,2.0103197,5.0069947,-1.1337589,4.4716268,2.8019967,5.7049627,-4.191947,-4.348016,4.9202642,-3.8216524,-4.537284,1.0460006,-8.186778,3.7039547,0.009218886,5.7261887,0.58322763,2.1538727,-4.069665,1.6044992,-0.47351915,-3.8706903,0.6045815,-3.7355552,-4.2205563,4.1169014,9.273683,-2.9171443,4.5985417,-2.4183793,-2.3880231,-2.0920358,-1.2006156,0.3787636,-3.170907,2.129088,-3.1883862,-3.8328106,2.2522063,-2.1499112,-0.91746604,-0.61549693,-0.43819097,3.520781,-6.3877306,0.17383404,0.11520604,-2.77295,1.5518277,-0.86940396,0.023603542,3.9963207,7.9021826,-5.259761,3.0840755,2.8325882,-3.3802915,-0.66932356,-3.9174054,-2.9782045,-3.8739145,1.6086621,0.81082815,-2.938849,0.28670672,-0.62512386,0.7834502,-3.380371,0.26537442,1.2845392,-1.4875532,-0.93407416,-1.1944708,-1.1263638
ACH-000856,-4.0330844,-1.0702838,-5.0011034,0.12194899,-4.456383,0.6567684,-0.6915678,0.54961485,3.8470168,5.6653304,-1.6799511,-2.2164638,-1.5835971,2.0094962,-1.5665144,1.1433295,-0.45396703,-6.452779,-4.336853,-0.059272006,-2.1430917,4.5215507,1.2877783,-9.149212,1.3698393,-1.9146105,-6.4687376,3.7143726,2.3860898,-4.6929345,-1.1120434,-7.4720945,1.1306305,-1.4866097,0.02002873,4.1903067,0.9884189,-2.4521084,-2.7543972,-2.0796099,3.994791,-1.4854685,-1.1834803,0.6708001,-1.5875326,0.40477213,-3.7170377,2.4835777,-6.3695173,1.7696759,2.4313965,7.0170865,1.4692254,3.1154044,-2.1377032,-2.2818322,-0.5647914,2.0578408,1.2120763,-0.6511794,-2.8923624,0.022807477,0.27090102,-0.39385992,2.767569,1.493031,-7.455504,0.2342325,-4.7610173,-1.2340573,5.6463914,6.223466,-1.0844834,-1.4979752,2.0832248,1.2587278,0.34471262,-1.8107017,0.31941226,0.45653898,2.3501928,-2.6864572,0.47620085,-0.48929054,-1.159773,-1.4478419,-1.2408276,1.0998968
ACH-000729,1.733184,3.9217682,-4.867678,-1.2480832,-0.97834927,-2.472533,-0.8037971,-1.0651064,1.7080564,3.6839886,-3.2332828,-6.4433994,-2.4424882,-0.9556558,2.8329437,-4.562048,2.850936,0.42980704,1.6431879,-3.5675325,3.0436502,0.8194631,4.2186193,3.3469973,-3.9193625,-1.664788,2.6694648,-0.47501045,5.62397,-1.2860545,-1.0753305,1.5875508,0.25628775,0.16717316,-1.3805529,-10.078259,2.9014068,5.6511455,-1.4405053,1.3817555,2.8757932,-12.690439,2.6002672,1.5032485,4.8124347,-0.14732528,-2.2852666,1.2459494,2.0800831,-3.937457,-1.2629359,4.895371,-9.005972,-1.3000959,6.7942324,-0.5966878,1.4376724,-0.6333109,-3.4968703,-2.8486917,3.3741598,0.8945115,0.26562494,-1.5171387,2.8137834,2.2319267,-3.2836313,-5.0379014,-4.7247405,-10.163398,4.4008393,5.7680945,-3.3647153,-2.829217,-0.4062423,-1.0242321,-1.4191535,1.2063482,-1.2170236,0.4824898,3.9559753,-4.3422475,1.083352,0.053221285,-5.2603006,2.7948482,-4.418762,1.1677303
ACH-000880,6.757118,1.2977333,-8.77301,1.0333635,-6.408603,0.11232189,-2.1258457,2.1446145,2.878708,-1.4265392,-4.4504547,-2.127778,1.4200602,1.4005659,-0.21558042,0.6602096,-7.294948,-12.112198,1.7664844,2.7583675,-3.2321706,0.5995159,-2.929645,-1.733594,4.6322746,-2.7172372,5.7159343,2.3585594,-0.045943737,-0.3619621,-8.66179,-4.2305856,0.6735383,-5.27435,0.53861696,-2.986808,6.962457,-0.5723482,11.385575,5.23155,5.5235767,-8.870964,-2.0417278,-2.704758,-4.016933,3.9926267,2.004513,6.858306,2.6961353,-3.3731859,-7.24113,0.18707252,3.0763135,6.102434,-3.7671027,5.5057526,-4.1785564,-7.236689,2.5076118,1.985003,-2.8991535,3.3371723,-6.9955325,3.6547072,5.211346,-0.053991154,-1.3043314,3.0961654,-10.362135,10.821657,2.615439,-8.222396,0.7182108,-3.7531881,1.9829282,1.4562149,-1.738585,-0.3737036,2.0920978,-0.109113455,1.3432237,-3.3902297,2.1894908,-1.5841377,3.4899967,-0.68601125,-1.3961213,-0.12137371
ACH-000035,1.4464946,4.667689,-5.8543563,-1.4148884,-1.1339666,-1.9751172,-1.7846624,0.3579288,-1.1976733,-0.04515643,0.60035324,4.743891,3.0787694,-0.06877379,0.06904512,-0.6947793,-4.384102,0.3954752,0.9697918,-3.9289882,0.8200879,1.8428603,3.3138418,0.31329766,0.19454798,2.273278,-2.2732768,-1.7906102,3.81886,-1.9757395,-1.3233306,-1.4487333,-2.933049,1.6803991,-4.635971,-1.5685362,6.2081804,-8.602398,-4.2124205,3.3248644,4.310256,4.1340885,2.8792932,5.918114,-1.3761978,0.89115137,-3.5803494,-1.041711,2.8169868,-0.21716617,3.4349945,-1.3503132,4.563693,7.000986,-6.2599397,-1.983738,-2.1458578,0.16608797,5.0030527,2.6279979,2.2763772,-3.682668,-1.239905,1.9205289,-2.6392052,1.0376526,-3.0599594,-3.8464377,-5.832031,3.7680945,-0.26005122,1.8388054,-0.9610015,-2.8629863,0.08296542,0.90083706,1.1604977,-1.1338356,0.7942822,0.4140491,1.9208139,-3.152625,2.166899,-0.459103,1.3913758,-1.6842943,2.4146705,-1.6673253
ACH-000322,-2.0025423,3.9072046,-8.35657,-7.60147,-1.2270341,0.7773392,-3.446096,3.1571243,-0.4580651,3.565433,2.6430776,-1.2117574,-2.9842694,1.3393818,0.035276145,-5.218161,2.382389,0.97292644,-1.995632,2.9581344,0.061672565,3.8691423,-0.76277,0.5253629,0.87978894,-1.3043134,-7.3388534,-2.017086,3.0888834,0.38034564,-2.597913,-0.29327518,-2.5816364,-0.4104179,1.2478276,-1.4965435,5.828238,-3.0797172,-6.873928,-3.6876209,6.3114595,-0.06144815,4.2095065,-0.13513549,-5.252573,2.6889436,-3.0850768,3.0516934,0.86740613,-4.3502574,2.1101325,0.54735917,-0.86061704,-0.15076917,0.5460985,-0.89677745,0.92465264,1.4896859,-1.2633837,-1.6082593,3.9902766,-3.5430222,4.1027513,-0.706235,1.8633617,5.073139,-0.29121503,-5.0923066,-1.0294069,-1.8858801,4.300662,4.2693644,-2.229991,0.734923,-1.6669695,1.5336378,1.1522949,-2.664283,0.22399357,-1.6301142,-1.4664605,-3.5306315,1.9477365,0.41166228,-0.25165927,-0.99177474,-1.2352109,-0.24074525
ACH-000552,-3.2120345,5.6066065,-2.5272305,-4.8504195,-0.31921104,3.4616756,1.4011563,0.09446449,6.2193375,1.1688144,-2.2314005,-1.3159754,2.929855,0.39442337,-0.14049882,1.4747038,-4.2462826,-2.1908922,-3.3750668,0.23200092,-2.9494245,2.2744014,-3.0091066,-2.5347326,0.638553,1.7704836,-0.0628711,4.7688303,-3.047393,2.408383,-2.7440693,-3.2876928,2.2719314,1.3406405,3.9521153,1.0260403,-0.6727863,3.2102506,-2.653122,-1.1679412,-2.7211401,-0.3764198,-4.1298532,4.519527,-0.16961251,1.4634092,2.4320128,-0.7096306,0.6574461,1.9869027,0.75093174,5.126589,4.205346,3.5149238,-6.514355,0.08708966,-1.5228634,-2.6838624,0.82839465,2.127523,-4.9816284,-1.4303483,1.7468535,-1.2877084,4.058381,-2.736899,1.6800991,-1.7531567,0.48363438,2.7638535,1.7353076,-4.5770826,-0.5370807,-0.51884794,0.40436,0.09132007,-2.7521634,1.4925224,-1.0769019,-0.013215482,-0.5566424,-1.0512564,0.8822789,0.79061216,1.599768,-1.4918399,0.48484004,-1.3309662
ACH-000222,1.3028134,2.5060453,-3.9068189,5.0352607,-5.710843,0.40634608,2.3469179,-0.66116893,11.760442,-0.2855084,1.074391,-6.0363607,0.97168505,1.7481734,-0.52126837,0.52623624,-3.7327547,-0.20637454,-3.5018275,2.17135,-1.4999496,2.3568609,1.3270022,-4.8657355,0.5047184,-1.6577749,-2.924473,2.0192811,-4.644558,6.458953,7.2936993,-4.059012,-1.4589009,2.7211053,4.735936,3.4376135,-0.68078005,0.35535768,-0.13222742,-1.8595703,0.28366286,4.4549017,-4.664671,-0.8861638,-0.7715848,2.8380563,0.49278086,0.12173738,2.6641002,-2.0590365,4.1160684,4.8241663,6.9072146,5.8855076,-10.612672,2.98631,-1.9929396,0.29608226,-0.0060780905,9.032767,-2.9827862,-1.2667539,-1.333675,1.4334465,0.40256864,2.7844427,1.9334667,-2.0259945,1.2368578,6.3725986,1.0756953,-3.6858573,-1.0791236,-1.1180152,1.5693359,-0.80246454,-1.4172072,-2.8730326,-1.7702632,-2.4217825,-3.1248505,0.57006896,6.282398,-0.3392671,1.931188,0.22369981,4.60859,-0.088321924
ACH-000260,-0.38804364,-5.1159325,-11.307488,-5.2470675,-3.003547,-3.0592213,-6.8884397,4.384189,2.7143853,2.4941742,0.4780769,-7.7212963,0.3824829,1.5530555,-1.7220545,-1.6925073,5.4569883,3.2740593,1.7851602,3.2256627,8.136898,6.2591987,1.5399528,3.8878992,-1.6667145,-3.0664873,-4.1888757,-6.49865,6.07706,3.6612842,3.9432166,-0.9645829,-3.2372832,-1.0884138,-0.34352365,-3.4500906,3.3336558,2.3597682,-3.4185836,-1.9986535,7.935109,-1.5610125,7.64861,0.29919624,0.3230185,-2.0807586,-2.3921797,0.06812853,5.378096,3.521316,4.118491,2.6070538,-1.6855,0.3994456,-2.2535083,2.9318855,0.6160942,0.9518537,-9.993693,-0.07111481,2.985162,-2.134528,1.2728658,4.8663406,-3.3694174,7.193614,0.7913448,-4.576175,4.3889594,-5.552919,2.4771369,0.34554848,-2.6054518,-0.7418264,-1.8650173,-1.0099671,0.09750128,-2.5939846,-0.064045966,0.016245186,0.68902934,-2.932907,1.8865299,0.08431476,-4.563956,0.13302892,-1.3987207,1.6327193
ACH-000501,-3.126705,6.0208592,-2.8808594,-3.9704435,-0.9259531,3.609835,1.2837791,-0.034693316,-0.45149004,-3.36042,0.43881446,-0.123506315,0.5831811,3.2188027,-1.3195922,1.6330903,-5.150939,-1.7956731,6.532869,5.0633483,-3.618294,-0.40855157,-3.8093715,-1.7925588,-3.0278583,0.181764,-2.7774143,1.822195,-1.7618454,0.42115548,-3.097275,-1.0547556,-2.6897101,0.59945065,-2.4417636,-1.4404615,4.111754,-1.3523637,2.9357386,7.2432966,4.8032417,-6.2565947,-0.028790476,-1.3794545,-3.6999373,1.7114135,1.5944332,3.4305663,5.2205625,2.6031487,-3.1043215,-1.3727721,3.2557917,-0.15702385,-0.6948059,-1.8245167,-2.3591058,-1.4483188,3.5404985,1.6064837,-6.6575217,-3.8383553,-5.466565,2.482037,3.9483175,-1.8100965,3.1340988,-1.0356328,-1.700502,8.064892,-3.714204,-3.0791209,-0.3215179,0.3944535,-1.1370071,0.29333317,-0.7262743,-3.3982542,-4.1475477,1.0762528,-2.8983097,-0.6502353,4.598081,0.7797503,1.1443512,2.0347214,7.004811,-1.019777
ACH-000638,1.6501122,4.696615,-5.8517547,-1.3248806,-1.0505399,-2.0051272,-1.7948921,0.26898438,5.800662,0.17584457,1.9348073,-0.34857467,3.9764771,2.4121876,1.9565145,-2.0804932,-5.6792927,5.804259,1.4066856,-4.1823854,-1.3618982,-1.5622575,2.7114239,0.83532625,-3.6479433,0.575107,-1.7285942,2.285875,-3.9165764,3.8556113,-5.373882,1.5503796,1.7536525,1.8883511,2.0451503,-4.543435,3.7744439,-3.2048507,-0.646309,1.8132623,2.2657511,4.4294553,-1.6496036,6.987597,1.9559978,1.9604769,-1.5772845,-1.4623916,1.6606389,-0.252641,0.74193096,-1.6283984,0.069312386,6.0163198,-7.103123,0.42457917,-2.344896,-3.1443095,-1.6101526,5.0397835,-4.716531,-3.427265,0.24682146,-0.54343116,-4.5070615,2.9288957,2.9832509,-8.962788,-0.7010252,4.73055,-1.2121203,-9.339087,-0.490188,-4.007341,0.7399725,1.3632643,-0.6205722,-1.4598945,1.1442479,0.4875074,1.4532888,-0.49199107,1.4576157,0.42207056,1.6813437,-1.150795,1.6200905,1.9824433
ACH-000798,-3.1496298,5.686204,-2.6114743,-4.9103928,-0.37715706,3.5354404,1.4615728,0.1481183,7.530871,-0.5466684,0.99133945,-1.7236152,1.6429843,1.9178207,0.36316255,1.9253592,-4.6010756,-1.8792663,0.63209575,1.1292574,-2.8763742,1.6970145,-5.6293516,1.456952,-0.15701756,0.4508988,0.67717683,3.121431,-2.016596,2.1105926,-3.0276973,-1.8650278,2.006254,-0.7898403,1.0296786,0.20421278,2.8916073,4.0513,1.4647738,2.0362258,1.6545147,-0.08111567,-3.0607593,0.6226685,0.6239132,1.508231,4.534336,2.4704006,3.8783784,1.6015228,-1.5187842,1.5103737,2.6113594,1.8459572,-2.0678005,-1.3029124,-0.8353399,-2.6520565,-0.042350363,0.9181029,-4.132753,0.45754752,-3.2473042,1.647977,1.400964,-0.60431355,2.5119967,0.4955252,0.031555433,4.856635,0.12400742,-6.3697753,-1.0823213,1.4119453,0.98584217,-0.9355176,-3.120354,-2.2738738,-2.8915315,-4.004874,-4.888084,-1.6133891,6.029073,0.58040345,3.9216444,0.92426836,4.4926343,-1.8648512
ACH-001321,0.99800766,14.462498,-9.5643,2.7162774,-6.84143,3.389526,0.30616298,-0.035273194,11.788557,8.711345,3.6441133,-8.36115,-0.35426962,-3.0417132,-5.860174,-6.572966,0.87160265,4.6905465,-2.8637412,-1.5745919,0.5188966,6.500525,-7.285354,6.636348,-0.105884,-0.27248,-0.2332161,2.197713,1.7908632,1.6638081,-2.1269557,-4.0192156,-0.7609501,-3.1383827,-0.4637802,-5.0947027,5.9218283,4.9452868,-3.9903078,-2.012174,5.5336637,-3.9077897,-2.631984,0.22366697,8.493668,-11.003883,-4.000622,-0.5375413,2.114024,-0.6969895,1.3284687,3.903376,-10.553016,4.4650984,-1.9418446,-2.4561167,-2.7025738,-0.4598586,-7.85341,-0.212643,0.39874077,2.0413616,1.8278925,7.066563,2.77906,6.0066237,-4.8625298,-5.348405,-3.4099305,-1.6161401,0.8625385,-1.8463764,-1.7119515,1.3286142,0.73996866,-2.6012893,-2.647274,0.24135348,-2.7570748,0.19302765,1.1381221,-0.7132432,3.3612752,-0.6329165,-4.3439307,-0.07256019,1.2891734,3.3241901
ACH-000894,1.5071092,4.903571,-5.8555737,-1.2562709,-1.080962,-1.9460347,-1.7738341,0.19599944,1.2847013,-4.249249,1.0389215,6.816412,4.4083495,1.9760903,0.582557,1.4958613,-2.2706177,1.2198883,-0.81268245,-5.7790127,-0.7727317,-6.1738124,4.556486,-1.3854612,-1.3084809,4.016648,-2.1553173,4.7107987,-2.6562922,1.2442058,-5.5248704,0.50375235,0.06570358,-0.055209734,0.07265781,-3.5154686,-1.5027071,-2.9420023,-0.7814163,2.2204905,-0.19599234,1.0035219,0.76889235,10.52651,-3.1645243,6.6702847,2.0253303,-0.9197387,1.890456,1.833419,-0.97361153,-2.5585682,1.883979,1.9991399,-4.595124,-0.26347384,-2.0175626,-1.1830903,4.8611393,3.9620695,-1.3269429,-2.8120925,4.27069,1.1172347,0.8490391,-0.68324417,6.581307,-1.9798908,-2.7488306,1.9139967,-5.2019367,-3.9994655,-2.821945,-1.760724,-1.3573866,-0.09650731,-1.6490569,-1.9210016,-0.91085625,-3.4645584,-0.5064679,-2.832353,2.7806845,2.6174333,4.293997,-0.60524666,5.3394184,-1.9753034
ACH-000223,-3.5252092,-1.8809062,-4.2256184,-0.122024834,-3.7910452,1.0834297,-0.6655679,0.21453793,-1.1043808,-2.5210743,3.2133136,4.7094574,4.3891563,0.14384341,-5.025787,-0.5834621,-6.8233857,3.4367962,2.6902118,-1.1900878,-2.2884521,-0.93885964,-2.8969147,1.6246154,-2.8680754,0.46770892,-4.0532374,-3.7341373,1.0936011,-1.562771,-0.6272465,-0.6240616,-2.956756,0.2562095,-4.3220825,-2.3139288,5.2265115,-2.5308452,2.1169276,2.3246875,0.54534274,-1.5732214,-3.2506511,3.1955233,-0.48963922,6.975883,-2.7153594,-2.1486804,6.3332767,-0.6331122,1.5579557,-0.9944299,1.7799662,5.3873405,-2.2182088,0.040879913,-1.7188225,-6.4760885,6.623518,-0.15394914,-1.1814171,-5.263475,-1.3563831,2.8055196,-1.3535619,1.9162537,-0.18267787,-4.046372,-1.4836881,5.2376447,-5.373638,-1.8843791,-1.4197915,-1.4664665,-0.31986105,2.4793553,-0.40705377,1.2085913,-0.057344884,1.2168198,2.3002837,-1.2672515,1.2351172,-1.1031191,0.8960068,-0.8607261,3.00301,-0.9991115
ACH-001861,-0.045335233,1.9121917,-3.860801,0.055475395,-2.1414402,-0.0003243126,-1.3803021,0.92932785,-2.1867816,-4.140873,1.896359,0.18864161,2.7590163,0.38064176,2.1080823,2.3330138,-4.9535317,0.18295497,3.620807,0.6163849,-3.1139727,1.8943914,-0.25042138,0.86185235,-2.0992243,2.3221421,-3.8484147,1.229508,0.7952111,2.0796387,-3.401523,-0.16987382,0.69576484,0.8993723,-3.6519017,-3.1852143,3.316904,-6.920943,-1.9400789,5.4961996,4.283183,0.83185714,0.66358966,3.9003522,-6.775779,3.7074628,-2.3834987,-1.1703109,0.4251597,-2.1741323,-0.23735064,-3.1791022,2.4767013,1.0582122,-5.0556774,-1.3044777,2.0061855,-4.192837,3.7204692,2.921884,-0.8433996,-3.2724457,-3.7784297,3.0797198,-1.6000097,-4.5453553,4.7993116,-2.4807382,-2.4721522,7.220947,-2.1771657,-2.2782865,-0.56441176,-1.010538,-1.3914292,-0.44411004,-1.570097,-2.19059,-0.3418286,-2.8258152,-0.634444,-2.1569443,3.500819,-0.40822116,2.2995336,0.55330336,5.620651,-0.27480364
ACH-000596,2.3888168,3.5223594,-5.765715,-0.8473796,-1.929999,-3.0364342,-0.69884723,-1.656647,3.9781892,-0.3754508,-1.366204,0.5699398,2.8433115,2.231694,0.33055452,0.71581024,-3.0971012,4.8550177,0.2530283,-2.2007923,-1.8374437,1.774575,-1.428093,0.5193525,-5.1994743,-2.1945696,-1.3124404,0.3945068,0.087554984,1.5208127,-2.458947,0.3266375,2.8413925,1.6019275,-0.72569907,-3.3802462,2.5932221,1.1500736,-0.38409308,-0.9907496,1.0987148,5.161486,-1.892661,4.2219715,4.1226473,2.0969424,-0.50607955,-1.4703419,-0.28731996,4.440627,1.3499647,-1.8557593,-0.8945145,3.5431542,-4.4124885,0.03836509,-0.085371196,-2.0015519,0.46888593,-0.8074992,-4.6015687,-3.7831187,0.46741295,-2.1072419,-2.2929163,1.4909085,1.0080973,-4.7501535,0.74427646,2.002461,-1.8383356,-7.300381,1.1714704,-2.3579416,-1.8259684,0.51626664,-2.6381416,-2.4392974,0.28350434,0.19692433,-0.94228435,0.3418005,1.9256077,-1.057775,1.8179541,-1.1757941,2.1720212,1.0305444
ACH-000978,8.230637,5.4434576,-7.3405285,2.714296,-9.277541,6.733184,1.0024273,0.40508056,-2.9226685,-0.45332533,-2.2862334,0.20085669,1.9430329,-3.1980672,-0.5108711,-3.6016767,-1.9479215,-1.5103331,-0.114169784,6.720579,-5.924115,5.043429,-7.4122033,-0.8272759,-2.4033535,2.7222197,-3.6859326,-3.5422425,7.9633875,-2.2497149,2.1317666,-6.5660233,-6.6143594,-0.43828446,-3.9650989,-1.8670597,4.2367167,2.0598612,6.628015,-5.1506815,2.1991467,-7.3644476,2.25518,-0.91000426,-0.49432325,2.8529065,1.2095463,1.3527455,3.2859342,-0.8731449,0.04264234,6.9283037,-0.9359177,1.5389174,1.4108038,0.64998764,-3.1036944,-0.39594263,8.824455,-1.8126416,0.8985688,1.1657659,-1.4103724,-0.8211367,2.5784152,0.1648212,-3.9531665,-3.1503844,-11.3678465,-3.1201363,4.9776573,6.8693757,-0.86675644,0.2812427,-2.1163101,-0.1632672,-0.67568755,0.87745726,-0.980762,0.14586163,2.091931,-3.9295034,1.2315742,-2.377263,-4.5548196,-1.8301483,-1.0975571,0.7120724
ACH-000332,1.5895491,2.514295,-4.0225663,5.3359537,-5.744733,-0.16752882,2.3939564,-0.9820362,1.6480082,1.7782153,3.090125,-5.3545732,1.0579776,1.7125598,0.8323868,0.4121905,-1.5031173,0.69811565,4.533428,0.09608349,-1.6073945,3.1262882,0.7099433,0.9583306,-2.5265138,-0.43708822,-4.9660425,2.1739,-3.9960747,0.8743676,-2.3650928,-2.038585,-0.4393167,1.9247373,-0.33980945,0.81829387,6.2638226,-1.3188553,-2.5978658,2.8761756,1.1117115,1.2394601,-1.4682788,1.5783483,-1.43004,1.262792,-2.7780135,-0.73031986,1.4311298,0.92559373,1.3906198,2.4677045,3.1504009,4.283469,-2.4481246,-3.1989214,-0.6727191,-1.485742,-2.296965,1.7304815,-4.981353,-5.348306,-2.9761603,0.41565922,-2.137549,1.2390795,-2.8943706,-3.0917664,4.446512,2.5782015,1.0164042,-3.715658,-0.79674155,-2.0826714,1.6876336,0.47458357,-0.6192154,-2.3269918,-0.5693415,-0.3761013,-0.71173894,-0.3985344,3.1016798,1.037534,2.216082,-0.17535967,3.3697698,0.13902181
ACH-000998,-3.1557798,5.9348907,-2.824235,-4.0684447,-0.880664,3.5997243,1.3031138,-0.023451284,5.338284,1.1133579,-0.14072931,-0.7220268,1.3136328,0.21177223,-2.9653015,1.1776464,-5.426258,-2.4039118,-0.4702761,-0.6666604,-5.6002336,1.8511965,-7.3699455,-0.31106877,-0.28690696,0.06593369,2.4963255,4.153187,-1.5837424,0.47827372,-1.7050556,-2.9086294,0.95061976,-2.6896837,0.59226936,-1.4129359,2.0215728,4.554999,2.9100919,-0.008175283,0.24085794,-3.0219574,-5.332931,-1.8027565,3.3546398,0.33675388,2.209752,2.3521903,2.3834782,2.2187345,-0.20672297,3.091459,-0.13758174,0.58850354,0.91889715,-1.7127911,-2.236573,-2.6142921,3.029381,-1.216954,-3.7161756,0.35198015,-0.23412359,2.6629076,3.1158807,1.2287847,-0.47426164,0.07773097,-4.1373343,3.5200374,0.5330073,-3.7974932,-0.15523791,0.6134716,-0.44274205,1.1904095,-3.2574382,1.7687413,-1.0212686,-1.3357582,-0.77803946,-1.8643917,1.5340087,-0.57586443,1.8340312,-2.4543648,0.2563739,-1.7985702
ACH-000441,-3.0750058,3.0750651,-11.580395,-8.82216,-3.6771038,0.605452,-3.5705605,1.7999434,-1.6645882,9.156631,1.532535,-1.8372772,-0.59870356,2.5885136,-3.2115688,-4.766434,3.6860788,-0.96254426,-6.4000587,5.1351657,-4.600859,1.5889678,-2.859819,-0.7992203,1.3244979,-3.0918286,-6.616489,-1.4398655,0.17749079,1.3938357,-2.4249096,2.7087245,0.26278225,-2.73605,-0.26638433,-0.6276359,4.3753166,-1.9350687,-6.741182,-3.3541973,3.9308722,1.4728208,1.7764194,-1.0264261,-4.5182986,0.69112146,-0.8014705,2.2316322,-0.06722792,-3.505332,3.0350573,-2.9424026,-2.451221,-3.806542,1.2971455,-6.5353904,2.1645737,2.208077,0.15217102,-0.34361884,4.289804,-3.1187785,7.5667872,-0.6768385,5.0178423,6.6228685,1.3463485,-0.3170732,-3.1362295,0.9172607,-0.15154032,0.8244166,-0.27708668,-0.10875805,-1.2099234,0.9359768,-0.3762489,-1.3447721,0.75079894,-3.0298607,-1.2801164,-3.858088,2.132952,-1.7857401,0.27966878,-1.1505661,-1.4334857,1.5429482
ACH-000960,2.8977833,-6.4009695,-8.108733,-1.4706293,-2.7888572,-7.1162944,-2.3975503,-2.900563,-5.157088,0.5932054,-2.2429895,-1.3881421,3.4310684,-2.9587164,4.917441,-3.1956902,3.7543945,-1.1180743,-6.332593,2.2766824,1.9965968,0.59931713,0.9727375,-1.5016094,3.8407812,0.9461378,4.8918447,-0.33100075,4.4835463,-4.0358286,3.1234121,0.06619899,-1.9430869,5.1655397,4.5005608,-3.9275005,-6.8023195,1.1040342,-2.1680226,-3.6131325,-3.3184,-5.4830294,5.0836143,1.5901506,2.2090914,-1.7819746,-0.3141644,3.3781219,6.346437,-0.6886546,-2.9397194,3.6835098,-0.61051375,4.987015,3.3111658,3.0355337,3.1466513,-0.6391649,-1.6051326,-2.030422,-2.0613844,-4.9369516,2.585145,0.4844645,-2.1588867,-5.2687144,2.9304385,3.281242,-1.091929,-3.3438435,6.263086,2.8505044,-2.5504663,-2.1298294,-1.662522,3.208271,-1.2191851,-0.88626385,1.5294999,0.7112594,3.6374085,-2.4106398,-1.9873799,-0.39272803,-2.7907991,1.8355808,-1.7483573,-0.2563483
ACH-000098,1.5303502,2.9835515,-3.2463977,-5.935208,-0.56942344,1.0458059,3.0810137,-3.7168283,0.5319154,5.668267,-1.1138926,-1.8782848,-0.7954365,6.247395,-1.5844469,1.9565023,2.3397,-1.053897,-0.9169615,0.8101188,0.6292732,3.4150963,6.313136,-5.9209633,-2.0953164,-3.2827845,-5.7346992,-1.3026464,4.704666,2.2225718,-1.1382772,-2.328148,-2.9645596,1.4286544,-3.2029574,-0.01741354,-0.59183466,-4.359257,-4.0637817,2.7173123,10.9936495,0.6166181,5.8870735,4.238156,1.4710786,-2.8686607,-2.660274,0.60524553,-1.626591,-0.4923058,0.57730806,-5.3183603,-0.45609617,3.678465,-3.1665912,-2.3826094,4.1424623,1.4333286,-2.3223083,-2.0234566,0.91338134,-4.9491134,0.74793786,0.34911206,0.08500604,3.8464808,3.6435568,-3.684729,0.81194437,4.1190853,-3.7504356,1.2881362,-2.3103833,-4.643052,-3.0907586,2.5920892,0.46796775,-3.519893,1.9419619,-1.6566026,-0.9767261,-4.2386847,3.5278277,1.007175,0.62422895,0.12860256,0.35702235,-1.4483035
ACH-001336,-5.415348,1.551762,-6.764287,-1.5805398,-7.692476,6.34042,0.87275755,2.050155,-2.093628,-4.457555,3.3407516,3.9949005,-0.9240872,1.7061138,3.215366,3.5253613,-2.4193697,0.8231617,2.4011774,-0.5245,0.98433816,-2.9448671,3.2194402,-1.3351134,-1.2927345,2.8189466,-2.4773767,-0.73202074,4.465656,-2.3466904,-7.2767363,0.380977,0.51275396,2.2793515,-4.22066,-2.3836737,-0.33019942,-3.0578678,-0.58327776,1.0201391,2.2261553,-4.052455,4.9146132,4.1281576,-1.1377746,12.124689,-0.66956246,-0.826922,0.93482935,-0.79081637,-0.80968046,0.5488469,1.5031977,2.6995301,1.1946414,-1.6454998,0.76955503,-0.93516135,4.4256077,-3.990733,3.8095825,-2.5954323,1.4365888,-2.144778,-1.2425056,-2.0696254,4.9325805,3.1365304,4.7086945,0.45961595,-3.7661061,2.1273773,-2.1649244,-0.6668335,-1.2008568,-0.69189817,0.35995233,-6.0433607,-4.2403436,-0.9885819,-2.7521694,-1.5806096,4.8066635,3.6785433,2.378112,1.5371027,9.918843,-2.1052067
ACH-000971,-3.2182834,6.738561,-3.4122112,-5.833462,-0.12608005,3.5168362,1.5383666,0.1991298,0.4383294,-1.4797776,-4.9901605,-2.5459254,0.51555914,-0.52494806,0.9432851,2.209876,-2.8937492,-1.3693255,-0.67002106,3.0565648,0.56204575,5.005684,2.3225248,-3.2325637,-2.7036095,-3.5068407,-4.3296723,0.5980708,2.1423259,-0.09990029,0.8841974,-3.6649628,2.1266327,1.3632368,-5.5934734,-4.014211,5.433863,-2.343374,2.1706002,-0.64494735,2.724984,1.0525848,-0.589569,2.1278384,-4.7361097,0.005249365,0.6481329,-3.2619088,-0.8771429,4.981181,0.7804462,-2.973083,4.0354133,-2.1539724,-5.4884377,-0.6859253,1.6353145,-0.77239406,0.7403743,3.1651874,-1.2880621,-1.4105867,-3.5593352,-1.6399279,3.5548308,3.6746457,-0.2685869,1.0612539,-6.1345034,1.1133322,4.2028546,-7.047918,-0.54128563,-4.956139,-1.3158319,1.1164434,-1.5364685,-0.2048596,0.8738142,-0.32236144,2.5045629,-4.430195,-0.16448833,-0.8231566,2.6953466,-1.1346173,-2.4664252,-1.0865562
ACH-000926,-2.126084,7.105976,-5.9851074,-12.856893,-1.9846598,8.61754,3.712721,0.7001495,6.604347,1.0940228,1.0322528,-5.9027934,-1.0030063,1.4732841,0.99520934,1.3919728,-2.8269556,-4.0477924,-0.8166481,2.565982,-3.7524867,1.3307819,-4.4852095,-1.7616117,1.6297407,-0.8663514,3.4957578,4.778982,-4.545642,0.4241499,-7.277315,-1.2643422,2.1856713,-1.1000894,5.0266867,3.9823315,1.2957953,2.7153857,2.6371784,0.28102544,2.381749,-3.0017552,-3.6311028,0.52452284,-0.27508244,-0.24077009,3.4967332,5.680247,2.2811937,0.63964427,-2.1438963,3.9150748,-1.7391534,4.6433563,-0.97151625,-1.3480989,-1.9408048,-2.4951663,-0.7626951,-0.98645353,-3.064814,-0.06129014,-3.9236994,1.8961538,2.2347474,-3.2546217,2.50595,2.872915,1.0476589,6.673464,-0.2582535,-5.5338674,-1.5920684,1.2263616,0.6102642,-1.7372146,-3.214744,0.42726317,-2.7473168,-2.1049216,-1.8413591,-1.4112045,3.2871296,0.7747397,2.3209097,-1.0933509,2.2005286,-1.314714
ACH-000019,-4.087342,-0.9339675,-4.8394485,0.20401153,-4.4302053,0.610341,-0.491904,0.4394301,1.0362606,0.8135371,-4.1573625,1.6956024,4.233156,-6.0033684,1.3749561,-6.3701034,-6.922711,2.801061,-2.4896226,-2.3303595,2.357157,2.5720232,1.6372842,1.7597584,1.159856,1.6340392,7.9467325,-3.9589303,6.0540056,-6.733311,-2.0738475,1.3620511,-0.13826422,2.7502134,-0.63050133,-4.6411047,3.660007,1.1467191,-3.850254,-4.3493414,-5.006658,-0.65001553,-4.578481,8.624559,4.6339335,-2.663872,0.7386885,-4.8697505,1.5489403,1.187068,-4.882148,0.89266884,-1.735705,5.3787465,-6.8851643,0.442628,-0.042797048,-3.0880544,2.4233916,-0.68538916,2.9224129,3.640157,1.9946629,0.27958798,-0.5901458,-2.138483,0.18766965,-3.1826742,-2.8115,-0.13338761,0.3349169,-4.524168,-1.4966689,0.60941637,-0.43633246,-1.1754515,-1.9403241,2.7031364,0.7263955,-0.69140255,3.403798,-2.1828861,2.5059724,-1.497956,0.8972105,-2.7259684,0.6338543,-0.003294468
ACH-000330,-3.6851826,-1.7136322,-6.0831137,0.5391528,-5.770901,0.5728628,-0.60193676,0.66126746,-4.120268,-2.239048,-1.7562745,6.421854,6.8187113,-2.1468382,-0.46811748,-5.4232054,-4.677168,0.36298952,-1.9485642,2.3676496,-0.17034923,-2.7882025,-2.4564803,3.0767643,0.23433955,2.9635293,5.778515,-1.8407876,3.9188256,-6.3738737,1.1443223,-2.3827863,-4.0416136,1.2282017,-1.0657554,-4.600753,2.4781563,-2.143005,-2.2248616,-0.6315802,-4.774921,-2.6689956,-3.738149,2.950217,3.860415,1.3700744,1.3501798,-1.4176576,2.0391188,-0.041051105,-0.3774414,5.502693,3.6898615,3.7759173,-1.6136055,0.59775966,0.834562,0.5959489,7.550401,-0.096620016,0.6259544,1.6096332,-1.5162401,2.7211137,-1.7981057,-1.1704258,-4.8133163,2.7659662,-4.4998183,2.2985506,-1.2437379,-1.364551,-1.2773944,1.491059,0.21932817,-1.0097136,-1.7912438,2.5799806,-2.114126,1.8757299,2.6010318,-1.299778,2.460692,-0.9876723,-0.6401403,-1.7560304,1.55004,-0.29247713
ACH-000848,11.393769,4.056376,-13.429076,-10.333769,-5.2409544,-6.152857,3.694451,-9.166442,3.5401168,1.0874336,-4.514917,-0.76809275,-6.6668534,2.03278,1.2507827,0.076749444,0.1829084,-7.1833763,-8.618599,-3.1962504,-2.404312,4.9109273,2.172221,-0.8424521,5.2419033,-1.8203102,-1.205235,10.138986,-3.905353,4.1672487,-6.646996,-4.427616,3.7592533,-3.4218104,4.7193093,1.4279262,1.6965464,0.5554042,0.42664382,-3.247223,3.1970568,-2.9007132,-2.598834,1.9096682,-8.439204,3.8381076,-3.372865,3.9841776,-2.3426611,-1.2096062,-0.02349361,7.865378,-0.43805382,0.97390795,-1.555276,3.213965,0.4887088,-3.3498137,1.1211749,1.9760176,-1.9849092,0.156703,2.2674873,-1.6665643,4.073238,-1.0355074,1.4616241,-0.34332183,-3.0587084,-3.131316,6.9233837,0.15287699,-0.73471594,-0.022741389,1.5103043,1.2034576,-1.426568,0.33634692,-0.59423923,-0.969818,0.10984602,-2.6686373,0.13515261,0.71033067,1.0127367,-0.84960127,-1.4765711,-0.8536692
ACH-000481,1.9181279,2.062491,-10.575268,-4.0124946,-4.1490793,-4.9163647,-1.4077737,-2.551891,2.2562711,-1.9034727,-5.595829,1.8527296,2.037659,-0.41104186,3.5267208,1.3987348,-4.9845805,-2.0118515,-3.1058297,-6.530527,0.60396546,0.9572115,0.7847838,0.39505506,-2.6453333,0.8101281,1.7261643,5.0663276,0.026823826,0.70213217,-6.3314815,1.923331,2.88356,-0.08787093,-1.4723699,-4.638163,2.98354,0.2372627,-0.076438785,-1.9784757,-3.0586908,0.3629822,-1.7938504,5.073255,0.042625807,3.8002114,2.0825384,-0.14415817,0.3225838,2.8606293,0.16019583,0.11933805,0.6585072,0.67808986,-4.4296803,0.66581315,-0.770011,-2.6649597,2.5874732,0.8747794,-0.933723,0.5766758,1.8134906,-0.70096576,0.37032345,-2.5870268,0.11639685,-3.1617312,-3.2054415,-1.0891197,1.1416042,-5.1972604,-1.6987591,-1.9822506,-0.6594593,-1.8455477,-3.110559,0.6969955,-0.9361937,-1.5126975,1.380634,-2.4234147,1.0333723,1.3065562,2.4746122,-1.503519,0.6187909,-0.8385791
ACH-001517,8.267213,5.583612,-7.411195,2.855867,-9.36168,6.7279477,1.0484241,0.35671753,-0.074366294,-0.53934836,-3.553634,2.782503,4.785006,-0.38982925,4.5625334,0.69555664,-2.2053378,-1.5573558,-7.181171,8.1475115,-0.8422307,2.2267897,0.94324,-9.880792,-2.2322807,1.9493693,-4.8325195,0.88834,1.960406,-4.5529933,-1.892409,-4.431616,-1.2731999,-2.3374438,0.81372505,0.12420898,-3.1722043,-1.3838843,-2.6874683,-5.547551,-6.707156,0.2741872,-0.46657678,1.7263833,-4.0995317,5.685013,1.5167911,-1.8177093,-7.6729493,0.9027684,-0.28898606,3.9500961,6.410948,1.1812063,-2.6554985,-0.5080418,1.0581596,-0.1151973,7.850111,1.4501168,2.1249197,-0.82904655,5.059043,-6.139457,5.6591163,4.551779,0.34767026,5.1250944,-2.5495372,0.6019444,3.0283597,0.098491386,-3.8754768,1.3403296,-3.7941334,1.4983699,-0.02372545,-0.13706715,-3.8519683,-2.093487,-0.058818575,-2.1017118,0.33687714,0.4994555,-0.76236045,-1.2855403,3.0265174,-2.2099056
ACH-000805,-2.5041838,3.0270953,-7.120022,-6.108439,-1.3335328,1.446284,-3.1775134,2.5313203,1.8147974,4.8859887,2.4914973,-3.5586615,-2.1926425,-0.27247894,-0.82766086,-3.793527,4.059825,1.7575608,-6.794106,7.386538,-1.0420698,4.2266545,-7.3818555,0.6938847,0.13110489,-2.3916092,-6.6637745,1.1191127,0.1172095,3.6305802,-0.13003221,0.14835134,-0.9965808,-0.91373086,1.680765,-1.4530082,5.423023,0.98609847,-3.5791698,-5.7003093,5.5890975,1.5158808,2.7328732,-1.4277816,-4.2845407,-0.13364509,-0.44881797,3.8657954,0.4510904,-2.4491558,4.0264654,1.8451048,-3.7536762,-0.08026357,1.2962769,-2.572283,1.6514088,2.4841669,-4.0418906,-4.098431,1.00181,-4.118528,3.978222,-1.8163893,1.7546042,5.062673,-2.0286765,-0.580658,-1.7905968,-0.6055483,4.2428193,2.5857015,-1.318608,0.87392294,-1.8270558,0.5313121,0.32777858,-1.0037175,-0.43183506,-2.076068,-1.2636397,-3.1842036,0.93693185,-0.6698835,-0.35579836,-0.9723535,-1.1830306,1.0795627
ACH-000847,8.054444,1.3887872,-11.709396,-6.0511084,-8.565342,5.702527,-0.9664273,4.652244,-2.5834565,-3.1528592,-1.185006,-1.6732681,2.7699187,-1.964935,5.622675,3.5204277,0.8826343,-8.063905,0.46380562,-0.22216606,5.5330105,2.9396493,6.8369627,4.67795,2.1092312,0.45950675,1.2783734,1.0678588,5.634042,-0.058569957,-1.8930423,-1.5248922,-4.174662,-2.1470761,-5.240758,1.7159501,4.429234,-2.0357394,0.71877134,-5.1603403,-0.53968555,-1.9468842,4.872419,-5.1842766,-4.1122603,5.6353993,1.9580917,-1.5184227,5.38979,1.4375029,1.3898208,7.1702337,4.6707006,0.51315606,4.7666655,8.364599,-1.5381094,0.85127604,-1.3118899,2.6033866,2.144311,-0.21898988,1.8379352,2.6539874,-2.9701293,-4.2353954,-4.106898,1.2651299,0.65677494,-4.4567504,5.8423347,8.019038,-1.4051541,0.6081263,-0.10369681,0.5650162,-1.4540915,-0.6913576,-2.1498003,-0.030858308,1.6564807,-3.925583,-0.481727,0.5046165,-0.8201213,-0.6333954,-1.1847651,-2.7602077
ACH-000832,9.162315,2.8259177,-7.6452236,-10.007196,1.451317,-0.41128442,0.07068434,-2.2325127,0.22652416,-2.002005,2.8225975,-0.41590327,2.3794804,0.7371051,1.855952,1.408053,-1.7989686,1.327096,2.9520047,-1.6228348,0.29956353,1.6350093,-0.6031714,4.4624534,-1.9479845,-1.3716081,-0.73319703,-3.4213884,2.2418008,-2.0062706,-5.9813066,1.9129035,1.4181764,0.030167455,-2.8122554,-0.8287586,2.8509476,-2.0768082,-1.044516,1.4078683,0.0023172763,-1.0562234,0.35880914,1.5179657,0.7275464,9.749991,-2.1076849,-0.15873168,2.113153,-3.1786027,1.1010962,2.3935513,-0.89333886,4.2863493,3.0307362,-0.14517374,0.73003054,-5.110817,4.1163216,-3.1385193,1.8978984,-3.2441926,-1.2563969,-0.80951065,-3.8345606,-1.6088308,0.8801542,1.1193672,5.4461055,1.4573679,-3.7179646,-0.8684222,-0.31606737,-1.2119455,2.535543,-0.19950145,-1.8546259,-4.3652906,-0.56081915,-1.4403484,-1.4879125,-1.8070145,5.464345,1.8321016,4.114483,2.0672734,7.73346,-0.82406384
ACH-000858,1.4871291,4.8248887,-5.842622,-1.3016181,-1.0872275,-1.9500444,-1.7816881,0.24939673,2.6036723,-3.325413,1.0328835,-2.1155915,-0.11284074,0.5785467,5.7730155,3.8953006,-3.1251369,2.0787435,0.7479825,-1.3940226,5.1511774,0.63009506,2.3502896,0.060233817,-1.6950574,-0.67536086,-1.9019392,-0.39804083,0.6776987,-1.8780335,-5.9864783,3.7391667,1.3661649,2.5794954,-3.1422682,1.1495929,4.334611,0.37555718,-1.6683553,-0.9380003,-0.85184014,0.6005225,1.2867036,2.7126548,1.0831803,6.654428,0.030207168,-0.9280697,3.4862578,2.8067794,-0.7227866,1.649332,1.2260642,3.0075448,-0.704069,-0.26048914,-0.9758529,-2.1885817,-0.22602636,-2.501165,0.3818395,-2.6612685,1.26435,-2.2674496,-0.2257715,-0.62010324,0.726409,1.5121707,8.18015,-1.5428004,0.44627383,-2.9798262,-2.028959,0.6813896,-0.57481486,-2.5555978,-1.6056156,-5.866227,-4.7908473,-2.2987225,-3.8196852,-1.7436191,4.7533193,3.4589694,3.5679913,0.48671818,8.19023,-2.423577
ACH-000544,5.994044,-3.3615165,-7.2383027,1.8623921,-5.3237824,-8.010055,2.9049032,-4.880026,2.3954165,-4.961074,1.0778086,-0.9180357,2.0097873,-0.8769573,7.1612825,3.1088128,-4.6583667,0.7904198,1.1173056,-1.9621482,2.7006793,0.7561355,2.551492,1.3659141,-0.3576318,1.8656231,0.43345413,-2.106197,1.7435615,-1.8814793,-6.487662,4.450002,1.1283222,1.3943858,-3.6321888,-0.12140205,3.9955792,1.8276733,-0.6394609,-1.6931612,-3.8024857,-3.143607,1.0093482,-0.45662224,0.7119711,10.471501,-0.42909652,-1.0415955,3.9417818,1.2624305,-1.4235944,2.5056136,2.372823,3.3130991,2.7051358,0.6624302,-0.1239856,-4.167355,2.869096,-4.878917,2.9870737,-1.6130862,3.3302398,-2.030487,-1.4822228,-2.8997867,-0.29963475,2.91834,7.576016,-2.126442,0.15277947,-0.24437222,-3.143689,1.887231,-2.2026308,-1.4169743,-0.7021633,-4.5925,-5.884679,-0.41861758,-1.9401507,-1.6473124,3.4141572,3.0413702,1.4146287,1.128644,8.718491,-2.6245785
ACH-000566,0.25276175,3.1790338,-2.4558127,0.22343029,-4.40621,0.4093435,6.7739797,-4.2272873,2.6351905,5.781206,3.4384975,4.110092,-1.5015037,3.8407197,-0.9827171,0.5141241,-2.3007262,-2.7397377,-3.6511652,2.4339685,-4.7522836,-1.119769,1.8061985,-7.961208,1.1992764,0.8998608,-7.993106,1.0982497,1.3591814,-1.1207563,-2.61325,-4.733562,-7.337738,-1.3995078,1.702648,2.2057753,1.2580177,-5.781664,-2.5473948,2.6756663,5.8211346,-0.1431025,0.7933374,0.6936689,0.016084982,-0.58671045,-6.000412,1.5169059,-6.3125453,-5.3826036,-0.88905466,-1.5245351,3.3566382,4.2706738,-3.440444,1.6177845,0.6803888,1.9778256,0.76614374,-0.86815244,-0.17177813,-0.4266591,2.635849,-1.3237042,0.9460331,5.453787,1.0298839,-5.4158254,-1.762912,6.3680863,-2.8941672,6.280711,-1.2527087,-2.0641565,1.2096196,-0.027602434,1.2838318,-3.4623013,-0.1154156,-0.7811539,-0.25469968,-1.6231786,3.5726886,-0.15542082,-1.7532709,-2.381639,2.0818558,2.3947532
ACH-000787,1.7385296,3.9864745,-4.8813324,-1.2057763,-0.9823466,-2.4602327,-0.7993473,-1.1022782,0.32805157,0.43705103,-2.0965953,-2.2887824,-3.2194872,2.7149758,1.7972828,5.9093714,1.4699464,-1.5919238,3.4195235,-0.5659761,-0.5559686,3.6483765,6.774953,-6.695486,-3.1222293,-5.0570307,-6.6425896,-0.6214655,6.009503,-4.9877605,-0.9017873,-1.2656226,-0.673634,2.4463656,-4.3486524,0.49614295,-0.7769434,-5.340896,1.528225,2.8028512,7.903853,-1.737449,5.656029,3.7989335,-0.85045713,4.256237,-3.73407,-0.6313223,-2.2685382,0.39937615,0.2484025,-2.939075,-0.5536117,5.5862536,-3.143368,-1.8027471,1.4808668,-0.9776207,-2.4287498,-2.916041,-0.732634,-2.865035,-5.2016,0.618664,-1.9830128,2.0074947,0.057586294,-3.594258,0.36894053,0.5364353,-0.9431814,3.1827466,0.8838742,-2.0528514,-1.414543,-0.47826123,-0.8880125,-4.294677,0.8588977,-0.28923598,-0.8707099,-2.9132648,6.1586657,-1.3662496,-2.294887,-2.4582872,2.3926811,0.7813581
ACH-000749,0.442776,3.4483557,-3.8331704,0.051148176,-1.2482319,-0.71914035,-1.4393115,0.11669978,-2.7310946,1.2611831,-5.285574,-0.5535481,-0.97487444,-3.4188616,3.1597576,-1.6854165,0.96388036,-3.5984821,2.5310366,-4.483915,-2.5707293,2.387381,4.340857,5.305847,0.94473124,-0.3165438,2.1775439,3.4924538,5.5487595,1.6733888,-3.2601156,-1.3229814,-1.0321262,0.021356404,-3.9935954,-7.183728,-1.3468146,-0.7486716,1.2917932,1.0296265,3.0554261,-3.9701695,6.48132,1.1177994,-2.0629292,-1.4473938,-1.2052755,-0.4520179,3.8971486,-0.057794865,2.0766876,3.4402301,-6.012028,-2.295779,4.875599,5.3560033,0.8859568,0.58645,-0.21285659,2.8480673,3.0668855,-1.5543108,1.9702653,1.09128,-0.6111971,-3.1538677,-0.60597265,-8.494314,-5.6538496,-7.310736,2.078804,1.721551,-1.5331671,1.921314,0.44263828,-2.3544734,-2.5540974,-0.80245805,-2.8687067,-0.5398953,0.76394093,-3.9646926,0.50244737,0.78303355,-1.0376711,0.6919942,-0.8050349,-1.2574987
ACH-000358,1.8450729,4.800548,-6.580801,-0.48960575,-1.9988683,-2.5892913,-1.6022979,-0.39178288,5.637675,2.25613,-0.63751966,-2.879511,-2.5485284,-3.711988,8.159193,-4.5634937,3.900775,0.75929934,1.593624,-9.961466,1.4273686,1.0286257,6.506031,9.0635395,-1.9737761,-5.347916,1.8482939,5.027852,-2.7358935,-1.0592505,-8.636082,0.7570627,-0.77788824,2.2594316,-4.1274486,-8.80103,4.884807,0.2046737,-3.85532,2.72481,1.2652267,-7.258231,1.6338624,5.6323667,1.950722,-4.114636,-5.065397,-0.36535054,5.6175,3.2330065,-2.4086263,3.2379866,-9.476014,2.8934207,3.8560839,3.0631857,-1.5874879,-3.4220788,-7.0673285,1.7456276,1.1060117,2.9511557,0.34787008,-0.32253003,-3.7601402,0.51781887,-1.6074772,-7.42383,-5.646403,-8.037461,4.954349,-3.9114985,-2.6081216,-0.8406316,0.4217502,-1.6718652,-1.8643215,0.86511827,-2.1369975,1.5213134,2.5736704,-2.8938131,1.2000932,0.6696583,-3.1435444,2.9656482,-2.993703,0.19835564
ACH-001654,6.03941,-3.3150425,-7.279263,1.7749282,-5.3711095,-7.866387,2.912372,-4.709103,4.469817,-2.4052796,2.3269343,-6.3537016,-2.055878,0.28835517,5.3572164,3.4923675,0.9727641,-0.009539091,4.090227,-0.84378004,1.9505708,-0.6173783,5.854972,3.01186,-1.1194665,0.53837377,-7.221901,3.6984408,-0.424855,2.4241157,-4.5658817,0.37585634,3.443574,3.4477806,-3.794554,2.1554103,8.175279,-1.545884,1.9595914,-0.77864856,4.31743,2.3640847,2.8266764,4.4673424,-6.865098,7.0227585,-4.788172,0.8403867,4.748974,0.8170581,3.5596082,3.6860118,4.0800285,4.7177486,-3.6646316,0.8771992,-0.13945854,-0.8815475,-2.8831182,3.9670813,0.5115688,-4.1809626,-7.9750605,-0.012551681,-6.46015,1.2308636,2.130597,0.0028021575,6.1402836,-2.341786,3.3275945,-0.5534328,-2.8945642,-2.9694793,1.061587,-1.1258111,0.027962387,-3.0297618,0.16189605,-2.2128177,0.5630132,-2.9561458,3.6444974,2.8195033,2.6642358,-0.58202374,4.7079263,-1.2077839
ACH-000213,-1.6372406,2.3481698,-10.13951,-1.9194173,-5.7380247,-3.2867138,-0.3873672,-1.4014482,1.3685645,-1.7601969,2.1924841,-0.09514456,1.8573587,2.7108684,0.4334351,1.4896297,-4.0636134,0.32885134,2.0501606,-0.3852167,-2.216292,-2.164887,-0.62593645,0.43314868,-3.0280442,0.6496594,-2.1079893,4.168953,-1.9236206,-1.6060685,-3.5160992,0.44835842,1.0351214,2.3293257,-0.24963424,0.2008631,2.0802917,0.36573213,-0.8188849,3.2925332,-2.5748694,-0.08349831,-2.4314504,4.378192,-1.2823094,5.219797,4.0746007,1.9201301,3.19537,3.4398339,-0.5389418,1.4736996,2.8423204,1.2048084,-3.019337,-3.5098472,-1.9302118,-0.9320614,4.6331105,2.9392762,-4.7037306,-3.1338527,-1.1364912,0.11062789,2.0940456,-0.02246832,2.2296424,0.94949156,3.6151443,4.11158,-5.372068,-4.6467657,-2.4121091,-2.0687873,0.35979187,0.10901147,-1.0023334,-1.5938611,-1.804794,-2.0921214,-1.1732818,-0.55125177,3.2485306,2.483364,3.3938775,-0.10831219,5.778015,-1.5473924
ACH-000580,-1.7211462,3.3012424,-6.5801096,-7.236965,-0.5173689,1.0979737,-2.3502092,2.4282856,-0.20366314,8.511775,3.1704934,-3.2684996,-0.8606407,4.2696342,-2.397014,-4.5512967,2.2039587,0.23165914,-3.017113,1.8968399,-1.2597994,4.2869773,0.14684418,0.4064934,2.633987,-4.3985887,-5.925921,-1.1716814,0.31069618,2.100888,-4.471329,1.3817517,-0.13689369,0.14636703,-0.65310293,-1.9643583,7.547338,-3.1417127,-8.750659,-0.56305313,7.035266,0.5576568,1.7775786,-1.2131428,-3.6203485,2.0163763,-3.6276903,1.1952293,1.4048581,-4.2751336,2.1266415,-2.2247667,-1.5693754,-1.2438956,1.9157122,-4.6043763,0.6729917,0.40573943,-2.7000935,-3.5483303,3.3851695,-5.250661,4.16058,-1.0537182,0.16673724,5.7992673,-0.5367917,-4.2044945,-0.7675818,0.030405352,3.3529384,1.9338603,-1.1336764,0.0712384,-0.047805026,1.2288064,0.22926122,-2.6737478,1.1249754,-2.41092,-1.5585523,-3.501719,2.8716984,-0.65402585,0.41066724,-0.10252574,-0.93493515,0.89159095
ACH-000684,9.419674,6.979343,-10.79156,-7.465761,-6.6692863,2.9215722,4.090764,-4.3554816,1.6240925,-0.37722695,1.7620361,6.28081,-0.9127544,4.145406,4.339231,2.8610725,0.46535385,0.3684919,-5.5154247,1.986268,-1.0933876,-0.8969195,3.32221,-3.8670187,0.5885769,0.57576483,-5.497587,1.2778683,1.5271281,2.868628,-6.3044434,-0.19437319,-4.120121,0.48683396,1.3331723,2.8407323,-1.559174,-5.707107,-3.1258395,-2.3030932,5.8716736,5.9911747,6.0121226,6.298885,-2.015845,5.0004473,-3.7935205,3.1386304,-3.096786,-2.1563613,2.569999,-2.5052884,2.048432,6.282457,-2.3343973,1.6400324,2.5232396,2.1420815,2.9786286,-3.1406884,3.8663728,-2.6612089,4.1019526,-4.9022856,-1.5096586,3.106364,4.9540267,-0.27457625,1.713254,2.1107922,-4.3004456,3.816114,-3.3705134,-1.4160409,-2.3063624,0.45444882,0.27277398,-5.7753167,-0.97806096,-4.8360996,-3.107029,-4.180888,4.053387,3.4111812,3.015767,0.6226047,7.3241367,-2.9002125
ACH-000429,9.354427,7.2012763,-10.698505,-7.2337265,-6.4835243,2.7040625,4.1065392,-4.634056,4.4566545,-1.9786345,-1.7432103,8.772006,1.7549675,1.0415217,4.7843046,3.0297372,-2.9654953,-3.4527617,-9.752548,-1.3460336,-1.0541267,-5.864591,2.3068366,-3.4886677,3.43642,7.1624165,-2.5464246,7.187273,0.053989157,1.8290244,-3.8741171,-0.82011014,-5.2755985,1.1303939,2.2968915,0.5566179,-0.66297674,-7.9934306,-6.264945,1.4414574,-1.4631867,3.1832104,3.2043614,3.3431947,-2.327037,0.54056895,-1.411748,0.5560169,-6.716374,-1.1075964,-2.2874453,-1.3909235,8.64222,1.7516923,-4.921255,5.2434607,1.6171383,4.5787106,2.2154,6.1302357,1.8095748,-1.1102251,5.2720776,-1.3358206,-0.1998767,-1.195178,-1.0754149,-0.37437686,-5.989309,0.5585521,-2.905558,4.3106785,-2.9121385,0.72208047,-1.9570056,-1.9152462,-0.7297643,-2.0699298,-4.254818,-1.8370447,-0.06441654,-0.41063374,2.6233635,0.30729687,-2.2203114,-0.20532271,6.1363106,1.8777554
ACH-000643,-3.4899914,-1.8257879,-4.1630464,-0.06976773,-3.7342308,0.9940642,-0.66232264,0.19005567,0.41894063,-2.0286028,2.395327,2.4368389,3.012462,1.392283,-2.2718544,0.45564738,-2.853798,0.6242362,0.62709993,-0.17550261,-1.0788043,-2.8814278,-0.96917087,-0.29764003,-3.0497808,0.5182851,-3.4375925,0.02608421,0.5431999,-1.7224679,-0.19545041,-1.080573,-1.9342533,1.5681928,-1.6440175,0.090125114,1.0361612,-1.2466886,-0.9395684,1.6443647,-1.497171,-1.0191615,-1.5144386,2.6063936,-0.42952242,4.910705,0.18267117,0.034633316,1.99451,1.209368,1.7877848,1.9131981,2.5875008,1.375663,-1.7085847,-0.46510315,0.6351074,-2.06483,5.2609563,1.1794072,-1.7556238,-3.8045413,-0.8449211,1.7160687,0.007381337,0.60911644,0.67530537,0.2744205,0.24663463,3.783481,-3.587384,0.50169706,-2.1663158,1.562961,0.4886778,-1.4286427,-0.10091734,-4.6417828,-6.0806518,-0.39425912,-2.2618628,0.50929713,5.123726,1.3116946,0.36291987,1.3800886,9.054269,0.53588176
ACH-000896,0.9464284,2.97475,-2.5235393,-0.22907975,-4.380067,0.09503602,7.174783,-4.498158,-3.9109433,-3.4316747,-2.3349233,1.496045,0.34973335,2.135726,-2.7541087,2.1967425,-4.591238,-0.005282043,4.74623,-0.34153527,-3.0729842,-1.2831815,0.42377922,-1.7131721,-4.8482347,0.44110924,-4.726631,1.5517431,1.3241613,-1.6633765,-4.5903916,0.00499316,-0.013078349,1.518773,-5.770241,-5.097099,1.1996132,-4.7415056,0.6297432,6.119927,3.9356124,-5.6860833,0.8361967,1.5360538,-2.5473304,4.1895986,1.245114,0.48645285,2.32509,3.924227,-0.29155257,-2.5454302,1.678056,-3.3912127,-0.7129888,-2.8632185,-0.71891147,-1.3815724,6.531178,2.00551,-3.3560524,-5.5951295,-2.1692033,1.9457266,2.4019344,-1.6468846,1.5711094,-2.7825997,-4.03244,4.1351423,-3.5018506,-1.9537339,-0.14261258,-2.5245063,-1.2494808,2.224522,0.74249405,-1.8404218,0.36138877,-0.86079955,-1.7136614,-3.156774,2.1507492,-0.13397628,3.6167142,-1.2079287,2.6251297,-1.9621265
ACH-000677,0.6668509,2.3323421,-2.744889,-0.28113836,-0.9210288,-1.0665053,-0.472108,-0.8662059,-0.3300048,4.7300873,-3.0102344,-6.520206,-1.9649632,3.1686044,-0.40294585,3.5238802,0.5621572,-4.694783,2.1124847,6.9486217,-6.846077,6.3194313,3.8702636,-8.531048,-5.182016,-7.663864,-7.3018956,0.6863686,4.961934,-3.7865546,3.034787,-6.123774,-2.2740648,0.33012253,-5.00198,-2.6952205,1.734337,-9.174325,3.3247273,3.631862,11.240025,-4.7031875,1.9990083,0.9040067,-1.7806299,-6.3145976,-0.8253937,-0.92795247,-1.4308262,2.680164,-1.426542,-7.340855,0.49015388,1.8330677,-6.656083,-2.3730514,2.7235014,1.8373572,-2.7297256,1.619721,-2.7221484,-3.0520117,-8.944946,2.6171703,0.7097003,3.683332,-1.1359478,-4.345712,-8.115968,7.3516855,-0.6038954,-1.6761267,-1.5518045,-2.4286497,0.30023074,1.3536315,0.62595534,-1.4375243,0.8277775,-0.22366294,1.1625872,-2.9965425,0.9037647,-0.1455006,-0.59601295,-0.96352065,-0.7773299,-0.52068144
ACH-000055,1.6752988,4.9103756,-4.6807046,-6.729576,-0.2769855,0.7080184,2.550319,-3.4232879,-2.9547021,-0.6707963,-1.8754582,1.1365931,4.3749995,-5.434882,7.132811,-2.0423732,2.289237,-5.4962916,-0.69045186,-0.88848484,2.2610078,0.6183867,2.9237525,5.176221,-0.75758773,-2.7676418,2.2974122,0.79648656,4.7988667,-3.8696225,-0.15113632,-0.8645537,-6.865571,0.63823587,-4.187003,-1.8468555,0.88912064,-1.0924932,-2.8889432,0.7820206,-2.4689696,-7.0535364,3.7786748,-3.3196137,1.2533778,0.2083646,-0.9649133,2.6409335,4.7314115,0.07623904,0.5545715,9.2098255,-0.32299224,4.0714984,5.897889,7.9800954,0.9148137,-0.88846225,-1.4215686,0.37884313,1.2794338,2.0133798,-0.07387971,1.6179208,-2.4028552,-5.507862,-6.7750072,-2.8230405,-4.1773643,-5.221581,3.2192616,8.108798,-2.1362689,0.81263757,-0.522707,-0.6853033,-1.6351926,-0.36798048,-2.7099385,1.8244315,1.8436813,-1.976206,0.64369214,0.41790515,-3.3940115,0.18352807,-0.86897504,-0.4141085
ACH-000672,1.5132698,4.9986005,-5.8754373,-1.1928205,-1.0871425,-1.9261718,-1.7691344,0.14507905,2.2246757,0.5693759,1.3489057,-0.9292364,4.306914,2.7632167,1.2580873,0.52705497,1.9763442,7.3042817,6.919211,3.7368412,-4.362452,1.3302557,2.5603616,-0.35610944,-8.26959,-1.7933184,-6.419579,-2.1395695,2.7664566,4.049257,4.0478225,-1.2573698,-4.631209,0.65628463,1.0973679,-6.428367,-2.1237748,-1.0666252,0.95539606,3.4558246,4.1646495,0.0141683025,4.1904263,0.04500835,0.6591607,1.4140246,-0.39357802,-2.6929877,-0.011940406,5.0042534,2.2330039,-3.0540035,-0.42722347,-0.3674221,-0.94282454,5.439588,-0.5020609,0.7515469,-2.2797878,2.2396433,-4.8190637,-2.7797225,1.1759458,0.17884897,-4.3308806,4.396519,4.068719,-10.521628,-0.71914756,1.7555711,-3.9365168,-4.113315,-1.2411916,-2.2877858,-1.4010961,-0.44056576,-0.008092433,-3.619006,0.26564017,-0.42039517,-0.8033289,-1.6260245,3.472665,-0.122559234,-2.0671473,-1.4655135,0.95747083,2.2003167
ACH-000784,6.3273664,-3.5701675,-8.714785,2.9832504,-6.57275,-8.316438,2.3955357,-4.5668507,-1.4139439,-4.4854074,-2.4996314,-5.7533507,2.9256287,0.08056088,8.157817,2.0044808,-3.8747544,-4.692584,2.4482381,1.95036,4.661265,1.5189071,5.6439304,0.5902767,-1.7641591,1.9140862,-1.1379815,-4.8782325,4.8175964,-4.0819187,-6.841152,-1.8526003,-1.7294736,-2.4867737,-5.2949276,1.6416103,8.386345,2.419731,-1.8079385,-5.6951065,-7.621783,-3.2629576,-0.5560548,-3.587439,-0.4778953,11.502195,0.4351317,-5.0943995,0.46647295,0.753289,1.9950725,7.397883,8.98103,1.2094029,6.4307704,3.3074906,-0.8987814,-4.9648776,2.993681,-0.52127033,4.554555,1.4834857,4.235719,-4.4538884,1.6723369,2.5768898,-5.089494,1.8532499,5.297375,-7.5060387,7.4213367,3.8557744,0.62803507,2.628503,0.440351,-2.290126,-2.2351527,-0.79202163,-1.5298771,-1.6795051,-0.41997817,-2.5502696,3.0525217,-1.840785,-0.7227539,-1.81821,0.87876564,0.72843385
ACH-000530,1.7416223,4.0340576,-4.8915186,-1.174528,-0.9857505,-2.4509058,-0.7964133,-1.1288226,-2.3299348,3.0468998,-3.763174,0.026886642,1.4152604,-3.5003617,4.215648,-5.7767196,2.6853852,2.2047322,-1.792138,0.02550029,3.4361222,6.490559,5.1967535,2.1483166,-0.69483393,0.7866031,-1.1845962,-0.1172162,8.495513,-2.7102456,3.24141,-5.0718374,-4.688306,0.6704299,-6.585856,2.2631316,-0.41426283,-3.3301058,-1.778951,-4.4854326,2.2166362,-1.870056,4.4662676,4.027632,-2.370422,-2.056246,-1.1530542,-0.7305062,0.026875125,1.0245422,3.0493388,7.5224156,-2.8830504,3.8099976,-2.9372652,-0.29896578,-0.3100298,2.062487,4.6505394,0.5705196,4.54681,-1.7283976,3.3015718,1.1558692,-2.085029,-1.6696123,-8.494279,-0.9778212,-6.279117,-3.8682287,6.284134,8.335064,-1.7426475,-2.1715002,-1.0491682,0.17802936,-0.47420502,-0.7853558,0.7124293,-0.42106876,4.151263,-5.1451597,-0.39119154,-1.9419277,-4.5137634,-0.37030673,-3.2392168,0.052645743
ACH-000380,-4.6068783,-8.036278,-10.520839,5.4411063,-10.760076,-10.042825,2.0452375,-8.152622,-0.62535256,-2.6833775,-3.7411044,4.011674,9.864847,-5.874355,5.0288653,0.636903,-4.8619995,-2.2226691,-3.6305857,0.1618319,-5.3728585,0.2674019,-4.1884637,4.047498,3.276784,7.357432,7.342774,3.6663237,10.534319,-4.6941442,-0.3410595,-1.5713494,-2.339364,1.6090713,0.17548384,-5.28357,-1.5936546,5.0620155,-1.6882766,-4.4217844,-4.178004,-2.9712198,1.1976361,2.9717903,0.85007596,-1.9561073,2.5842862,2.2084234,7.7049575,0.7839252,-4.1412215,-0.97610074,2.9734704,-0.6470859,3.1320095,3.9949422,-1.1062858,0.6368599,1.3722825,-0.54977417,-3.0594478,1.3811889,1.734552,5.8579836,-3.069267,-6.9097533,7.9326177,-1.1674759,-5.9583926,-3.9258974,-2.8865921,-0.7621239,-1.0831175,-0.43696228,-1.5751771,1.4569025,-2.6269135,0.79125726,-0.23757854,0.13785076,2.4050717,-1.6860576,-1.1455262,-0.7025064,-2.422362,0.21286875,-0.5985221,-0.68096346
ACH-000009,-3.2687154,6.851136,-3.4472535,-5.6442995,-0.049045697,3.4477391,1.3983097,0.11873815,2.114675,0.12867518,-3.4453447,-2.2040339,-2.475305,0.9686046,0.28371477,3.6477623,-2.9119306,-8.838277,0.7455597,0.9902923,-4.2263308,0.40215954,-1.3723322,-0.28459996,2.9452841,0.84506273,-0.393903,7.4320135,-2.0716648,2.28082,-5.791311,-5.6167016,1.0776811,0.050050065,-1.1048968,0.52677774,4.872903,-2.1555219,7.385488,3.7342374,6.3253884,-4.646992,-1.9685373,0.30808392,-3.6773136,0.6438603,-4.007362,3.5536706,0.8516337,-0.90327835,0.1988703,5.9191003,0.4272686,1.700566,-0.43250734,3.5518389,-3.42749,-0.56736124,2.8695393,2.8361259,-3.9572122,1.6139048,-5.808594,1.1866772,2.7530508,-2.4901443,-2.6258533,0.91384214,-6.7768254,2.123996,5.173187,-0.32494584,0.23784557,-1.3631766,0.9266372,0.055154115,-1.7400656,-0.88964725,0.5613004,-0.88175154,0.5149936,-3.6224976,1.1477791,-0.08903983,2.8068268,-1.9534148,-1.3482251,-0.6142939
ACH-000491,-3.1150112,7.922502,-4.459974,-5.6376834,-0.36085102,3.1980011,0.9944304,0.3269475,9.81735,0.21425518,-6.5830197,-8.310049,-4.565137,-0.06648563,0.21440281,2.1711538,2.3125212,-2.4261062,-8.4038315,-2.1404781,0.006225336,4.6061754,0.82932824,6.198956,0.6942439,0.4900612,-2.4159317,12.907818,-0.6966331,12.2887,-1.0055193,-2.6702418,3.259557,-2.2494593,1.2044991,-0.86556506,5.1000915,3.4579244,-1.2912806,-5.9358473,5.13115,1.8181331,3.0488298,-5.577288,-7.513185,-8.47711,-2.9068387,-1.3952742,0.33534977,2.4994974,4.515801,2.7558575,1.9085914,-1.2578157,-4.4252453,5.5786285,-5.0873857,4.318697,-11.81792,6.248247,-1.9392015,-0.24764341,2.4852371,2.8911257,0.62208855,3.2272902,2.9501126,-3.5136185,-1.659272,-6.339586,5.631873,-2.4441106,-2.4007266,-0.22196448,0.9816685,-1.110992,-2.3657227,0.7269472,-0.32082683,-0.9158021,1.1351376,-2.653703,1.1653343,1.4088476,-0.38640502,1.0269684,-1.5993338,-0.12472105
ACH-001703,-2.6140628,-3.6909084,-10.294191,-0.11541928,-6.347816,-6.1904044,-1.4195899,-2.298342,1.8827808,-4.212774,-0.95930505,1.2011868,5.5212493,-8.829715,10.69703,-5.609071,-4.822666,0.019170895,-6.690061,-2.3762026,-5.3684144,-2.081493,-2.7964296,0.7928568,3.7309818,4.343285,4.270935,0.83644974,0.7329258,-12.00607,-3.0504742,-0.8302907,-1.988973,3.6225278,0.4632326,-6.8138175,-3.206085,4.92621,-5.1210012,-5.3483176,-11.178196,-3.444865,-1.8881248,6.250504,0.62290406,1.2460848,0.1896483,4.701448,10.607717,-0.85936654,-7.06218,1.9693289,2.0999072,6.0068336,3.001052,-0.6808476,2.0016942,-4.9194603,-0.11501414,-0.63217455,-0.31938955,-2.2881532,6.3252587,3.004988,-2.7587082,-4.2321296,5.1183124,4.3861756,-0.54367214,-3.374173,3.298388,-2.5799038,-1.4073561,2.872058,-2.4104574,0.59304667,-2.95174,-0.89677966,-3.8053565,0.9296365,-0.05129771,0.652778,0.6777569,-0.23322496,-2.8328757,0.7755327,5.0791883,1.8240876
ACH-000002,2.9030428,-6.295391,-7.972382,-1.3352067,-2.7758691,-7.0887194,-2.3006012,-3.0012133,0.9832415,-5.3113,0.05655075,0.48175567,5.1891437,-3.39594,5.616952,-3.1427045,-4.367598,1.1393003,-5.4424987,2.3572006,-3.1203756,-2.2071655,-3.0059924,-2.0108955,3.9888988,8.95517,2.811068,-0.44743502,-0.60707253,-3.287377,-3.8902287,2.451381,-0.2157771,3.3250043,3.7670593,-2.2148325,-5.989827,0.39362258,-1.1191524,-3.8060179,-8.032927,-4.1453295,0.26709527,3.6872756,0.4592152,3.764161,2.3381968,0.8790696,4.062957,-0.6097162,-3.913954,3.7307682,2.891158,5.991142,0.758404,0.15958898,2.7969835,-2.5303774,3.5837903,-2.4543118,1.5935628,-3.8690991,4.2904677,-0.47245285,-0.10454553,-6.8802824,6.2504387,6.0177975,3.592393,1.3912792,-1.9664979,-2.1706033,-2.881679,2.5201936,-3.8451397,1.4368796,-2.3367705,-0.7633432,-3.8640099,-0.07705811,-0.702947,-0.10895997,-1.23988,1.0392282,-1.0484296,0.19751942,3.9336822,-0.899566
ACH-000711,-3.6587462,-1.6667451,-6.0857744,0.5792713,-5.7810593,0.5293569,-0.58233535,0.64888567,-7.2955155,-0.28910607,-0.7338694,5.6619625,1.4516273,2.0060086,-6.1598945,-0.34546423,-6.0002146,4.7486625,4.4764395,2.4015934,-4.1518216,0.37107822,-0.7511912,-2.4953358,-6.1454644,-0.43249643,-0.8002869,-3.0602443,7.6086674,-3.7047436,-0.022043286,-2.2673862,-3.870614,2.3471365,-2.7148623,-6.9431815,3.9552035,-5.2595725,0.27400005,4.717153,3.5385382,-3.6216905,-0.20112725,1.4719355,2.0544844,2.4939501,-2.0539923,-1.1062466,1.9389374,2.5144053,-0.924888,-5.504339,2.7813373,2.3136864,-3.9409034,-3.4462547,1.3090531,-1.1863139,5.759113,-1.1007566,-0.77102053,-5.675551,-3.882626,0.15765382,0.21558082,-0.5934074,-0.8338397,-4.118922,-4.9671845,8.244861,-6.609544,-3.1980195,-0.8264552,0.061285153,-0.7096523,1.9990294,0.7121803,-0.22463232,-0.8100214,-0.6030805,-1.5266244,-2.619258,3.155732,-0.7842005,1.9400182,-1.1227665,2.1695614,-2.1616123
ACH-000702,1.9771518,-2.0690594,-18.394482,-3.9649894,-9.123823,-7.753662,-3.748928,-1.5631747,-0.009303604,-6.2838387,2.5169005,2.2240975,0.042706795,-2.4224787,7.556839,3.6334772,-0.7573856,1.4149612,0.23957792,-2.9653816,-1.9410869,-3.9088712,8.574464,2.360073,-2.9736128,2.4546473,1.0998799,8.44072,3.3036993,1.0928805,-2.1665661,-0.21351367,0.1643647,-0.503223,-2.4787,-4.2552366,-3.2499566,4.738192,-2.4222908,-4.024959,-3.9889703,-0.96874416,5.3931804,0.8503684,-6.369974,4.0864425,5.595763,-1.9579223,5.138295,5.484776,-5.3429575,-4.415443,3.3550196,-0.26630753,1.7687833,-0.7704698,-6.1795416,0.8117845,-3.474977,4.874341,-3.1589124,1.7306933,6.0407705,1.5468208,1.4775555,-3.0637972,10.748338,0.059093073,1.2609947,-6.527563,-7.6442747,-4.577059,-0.15560451,0.2078684,-1.7817177,1.8257382,-2.7216182,0.69010234,0.34615573,-0.23023465,1.0729331,-1.1648397,0.26055527,-1.4509931,-2.1350021,0.69168603,0.7517351,1.2068967
ACH-000354,1.5735376,2.5011263,-4.004605,5.3129773,-5.726607,-0.15831633,2.3847244,-0.96744543,4.5600185,-0.9540422,1.7043291,-1.498318,0.47325248,2.2125993,-2.9908617,-1.1959553,-5.1155477,-0.9949768,-0.67784464,-1.0975244,-1.3282442,2.262407,-4.1535697,-1.1294724,-1.5710733,-0.8861796,-2.9973335,-0.29766428,-2.9760635,0.95184416,1.0836617,-2.0907714,-1.0608982,0.6177525,-0.88955295,2.131833,3.473842,2.015682,-0.9349864,0.937007,0.47847614,0.9554504,-2.2100918,1.3396941,-0.79513663,3.1096992,-0.62942463,-0.09462441,3.2342901,2.62769,0.7053444,3.4072986,5.0939817,5.5900483,-4.3290095,-1.9412744,-1.7824848,-3.2190466,2.0902212,1.2020133,-3.6395962,-1.6318654,-2.0925815,1.5755914,1.3026172,1.6485169,-1.8530173,-2.3170137,0.68432206,3.7108808,-0.60969347,-2.9235935,-1.2781988,-0.867514,-2.1917863,0.31901976,-1.2545342,0.08255792,-2.8859463,0.51853395,-0.6704941,0.797878,1.2139424,0.1562258,0.4298516,-1.3219271,4.4141207,-0.071538806
ACH-000012,0.6452961,2.2930408,-2.7558556,-0.31305254,-0.90744597,-1.0923972,-0.4931583,-0.86017585,1.3093213,-1.7458615,-0.77690464,5.6628656,-1.3760982,0.9849514,2.6159475,3.386954,-2.5646174,2.7918549,0.041335568,-3.966322,0.35250396,-3.86878,2.7868683,-4.081759,-4.3922563,1.2743839,-3.7041125,4.3741064,-0.102551386,1.4933885,-5.6678123,1.8088498,-0.5504236,1.2913655,-1.5601947,-4.9560614,1.8648616,-4.779847,-0.13721511,2.344466,5.399257,0.43956715,3.5405207,3.9763536,-0.56034935,4.213035,-5.0111566,0.08519204,-3.8462167,0.6375071,-1.2229533,-4.575567,0.8083178,3.4334917,-3.92976,0.4398894,1.539584,-1.3477149,-0.1918283,1.4298245,0.31522608,-4.2920566,0.7192524,-1.0593668,0.3886595,1.0090357,2.460488,-4.916571,-2.2598662,2.7085974,-1.8819218,-1.7074662,0.28135023,-4.282545,-2.4444652,-0.08931875,-0.30840817,-2.968216,0.3436003,0.302012,0.11842007,-2.379685,1.5591074,0.90897804,2.9306037,-1.7017094,3.3990953,-0.8392195
ACH-000249,-3.2182834,6.738561,-3.4122112,-5.833462,-0.12608005,3.5168362,1.5383666,0.1991298,2.7001362,1.2824906,0.65524477,-5.807887,-2.7490604,1.125844,-2.1998005,1.7411951,-1.3526775,-1.9588134,0.5918441,4.2730756,-3.6797512,5.491412,-4.000605,0.86944187,-2.5526054,-4.8702517,-4.0014796,3.3320274,-2.3132098,2.6993518,-0.17452721,-4.9307404,0.32209203,1.1747025,-1.6782247,-2.6676965,6.11129,-1.0936012,1.7619618,2.9925086,6.6545315,-2.1004844,-3.2212846,-1.3443177,-1.9599885,-3.6137605,0.44702965,-0.7640542,2.801379,3.4428704,1.3514967,0.78281623,0.55231404,-1.8367052,-1.1372534,-2.4985566,2.2523801,-0.8602035,-0.7667722,1.588014,-4.465319,-3.3579226,-7.2757907,1.8324593,0.35215652,1.3653729,-0.2885236,0.2938432,-2.336024,4.664981,1.6851001,-5.337963,0.020621687,0.42000902,-0.5604618,0.1524069,-2.2060437,0.05027032,-1.6966984,0.4675414,-1.7729373,-1.2147313,2.5045712,-0.39362487,1.5274683,-0.7646306,0.83417815,-1.2484865
ACH-001368,3.9300234,-4.994442,-8.179963,2.3226116,-5.815821,-9.717183,2.3431327,-5.4431095,-4.323444,-4.455422,-8.957563,2.0844376,3.6309166,-0.44913635,2.6563203,2.348669,-4.289226,-6.83578,-5.920018,0.32241425,0.47758755,0.25134602,0.83157,0.5217769,-1.8966616,10.532553,0.55460006,6.8050857,7.914365,6.1461587,-5.684253,-2.0649397,-4.1051154,0.82828593,0.18828261,-2.5685885,3.2044334,-0.9675076,2.2026215,-9.273093,-3.2076614,1.7105515,4.756709,1.1350952,-10.470209,5.254284,5.9417872,-2.8407314,-3.9452412,-1.3443855,1.803061,5.175985,5.9690394,-4.1015687,-1.7781236,5.6230297,-6.7340503,2.2394927,5.0801406,6.874656,3.193657,0.322632,1.1871554,-1.3275661,1.9405173,-2.8741984,3.8685045,-3.86682,-8.876972,-4.67554,4.1871004,4.9419627,-2.5638149,-0.54616356,-0.60567534,0.21095838,-2.5542676,-0.6074467,0.83227456,-2.871668,3.5319722,-4.9776626,0.028389215,0.26544982,-0.54076576,0.13569999,-0.35383934,-1.425792
ACH-000231,1.3837171,2.835546,-3.2132144,-5.9251223,-0.6693424,1.2201807,2.9504128,-3.5653908,0.83025545,1.9531846,2.0721724,-0.3925101,-6.7117424,1.947727,-3.3824453,-1.5176831,-0.14130647,-0.09391096,4.456262,-1.0730374,-0.51519734,2.681959,2.5425594,-2.69244,-0.7030286,0.45797163,-6.6202965,0.51980436,5.7559257,0.58676976,-0.6398259,-4.16182,-6.0350614,1.8442657,0.7801927,-0.8461509,0.72538525,-3.665019,0.21422957,4.0002236,12.720699,-3.706043,6.135574,0.7200763,-1.9131498,1.2195032,-5.5909586,4.3571777,-0.4062644,-2.493262,0.96908003,2.628493,-1.2109827,3.759515,0.041345097,1.9128327,-1.254107,-0.3305,-2.0727212,-0.89982086,-0.29030475,-1.5497401,0.07864954,4.12825,0.4240767,1.6047541,-0.2030243,-9.846364,-2.1693356,1.8205678,0.891995,6.6141233,-1.320878,-2.1469138,0.7895591,0.6364874,1.4719875,-5.1008563,1.672841,-0.6333947,-0.5446291,-4.270326,5.549314,0.33890224,-2.0571277,-0.21494389,2.2625165,-1.3036485
ACH-000945,0.6983428,3.2510252,-11.779815,-3.5588534,-4.8093987,-4.660452,-2.0755098,-1.3283908,4.4733095,1.1885806,-0.15790085,-5.133467,6.0138583,1.7904553,-0.915181,3.9161458,3.746416,5.162028,-2.5658758,8.546687,-1.789239,8.123301,0.7697842,-2.3999684,-3.0087554,-1.9176307,-6.3825536,-4.4334326,5.3741374,5.066086,9.269715,-5.1661806,-2.445249,3.989331,-0.62065375,-4.095097,-0.13933446,-0.09929476,-0.7957457,-2.1414049,4.313089,8.780466,4.2303586,1.6548417,0.070676476,-2.8404129,-2.0990868,-6.1424303,-3.5259771,3.5303006,2.0765283,-5.907639,0.9968591,4.3078794,-6.5088067,4.312707,3.0732782,2.4573853,-6.1762614,-0.24399675,-2.0419412,-3.6049306,-0.80754006,-0.07428691,-7.177398,6.3303947,6.9497,-1.8758526,1.320684,4.64678,-3.356005,-5.257958,-1.114394,-3.150281,-3.2975547,0.07360652,-1.5830162,-2.20668,-0.006333828,-1.4954336,-0.13163589,-1.1967039,3.3347988,-1.2495658,-4.366527,-0.09178442,1.3306775,4.022625
ACH-000662,1.5095733,4.9415836,-5.8635187,-1.2308909,-1.0834341,-1.9380894,-1.7719542,0.17563134,-0.040518932,-6.3942823,-0.79572433,0.2890089,-0.9428514,1.683363,2.4478996,2.453165,-6.328127,5.2999277,-0.38112375,4.192763,-2.1898122,1.8173869,-5.1934733,-1.1780984,-8.24954,-3.8703885,-4.9564147,-0.06906185,2.7095635,1.6724541,0.6486766,-0.18725137,0.6703046,2.7670696,-3.9887133,-2.7737415,2.430631,1.4644065,1.2818366,1.7339957,0.5791007,2.29561,0.039757848,-0.32202572,0.12409756,6.586156,-0.8414481,0.3966769,0.6402425,4.611802,-0.12742509,-3.9362366,2.7401836,3.0058134,-2.8525956,0.869922,2.100568,-4.5047617,4.4907994,-3.0608518,-5.885694,-3.734025,-2.0602856,-2.4953518,1.3632693,-0.27400386,4.0924397,-0.7109419,3.548212,5.1467204,-6.1756635,-6.8972716,-0.8070067,-1.6257317,-3.6709676,0.5236135,-2.4620807,-1.357577,-1.3352505,0.02337122,-0.60360533,-0.13509,0.1437597,0.7304428,2.0688732,-2.0298352,3.2815871,-1.090112
ACH-000248,-4.028563,-1.0816435,-5.0145736,0.11511067,-4.458564,0.66063756,-0.7082065,0.558797,0.31000623,0.9390347,0.63266724,3.1174152,2.6476169,-1.6762003,-0.34588304,-5.874407,-8.839407,-3.1379735,-2.957342,-6.873665,-1.5694985,0.1920222,-0.15970376,5.034265,5.000551,-0.50791645,9.163599,-1.8595337,2.042555,-1.9920963,-9.496424,3.4221315,1.0524098,-0.8282388,0.32888904,-3.4859352,5.088166,-0.8306049,-2.959864,-0.5850224,-1.2097747,-0.6538992,-4.4307733,5.947112,2.3404548,7.144814,0.88647586,1.0218804,5.2809563,-6.962089,-2.4792638,0.4314816,-1.6129476,6.269284,-1.4684873,1.7728703,-2.0250165,-6.1254706,8.362136,-0.0034461834,5.547822,3.0606468,4.573107,0.23276737,0.059822854,-2.0452666,2.6336284,-3.2512093,-1.0583416,2.9236474,-4.962205,-2.6086025,-0.7557453,-0.11732161,0.223169,-0.023065865,-1.7549837,1.6916012,0.80518043,-0.7128452,1.6963556,-1.9889289,2.096172,-1.1967661,2.0069628,-2.514386,0.37330806,-0.36158043
ACH-000943,-2.126084,7.105976,-5.9851074,-12.856893,-1.9846598,8.61754,3.712721,0.7001495,5.2299953,-2.0098495,-8.033895,-4.5895343,2.0960827,1.0669892,3.5051882,10.56437,-2.0941012,0.83166575,-9.747594,9.266203,-1.1611767,-0.7117414,0.64490074,-4.1430225,-5.352155,-0.41253325,-3.0530117,2.861503,5.900646,5.5779805,1.4987018,-1.2962987,1.037077,0.6697992,0.52657765,-4.3085427,0.0035033883,4.7479296,2.4559627,-5.8693166,-1.5771202,1.4483541,1.934186,-2.5059936,-0.5995407,-2.7355654,8.388456,-1.3500495,-4.4969673,4.7821064,-2.9245389,-5.524884,5.2320585,-5.878257,-1.7224182,3.3746374,-2.0772374,3.0318365,-2.9662716,-0.11408612,0.70812404,2.5516608,3.3970249,-4.134493,3.26421,5.629618,8.177886,3.251524,-1.5956261,-0.79150456,-1.3610967,-6.8807755,-1.5694969,-2.839474,-4.348801,-0.47228664,-3.0808024,0.4937422,-2.2824883,0.2863764,2.280483,-2.283351,0.415145,-0.5654754,-2.9809854,0.04952228,0.12297505,0.5754841
ACH-000751,5.6865807,-7.4022374,-10.162404,-1.4837533,-6.4984775,-2.6335218,-3.8262954,2.4926789,3.9520748,-4.0312357,-4.864615,-3.4052367,1.7996637,0.9356191,3.773346,2.8704114,-5.614536,-4.005313,-6.423083,2.9138033,-3.0785713,-2.2767208,-5.5053186,-3.4949489,0.89129794,8.522746,4.350359,9.674065,0.85542613,7.0467744,-5.8696413,-1.2320944,0.94180673,2.3018277,8.197256,2.0939806,-2.1456275,1.4766446,-0.2874175,-4.9257226,-4.8568153,-4.0546227,1.6135772,-0.7108106,-4.374293,1.1614127,5.8461165,1.6313902,0.7581511,1.986519,1.471154,5.2604566,3.9608033,-0.054373298,-0.25770998,3.0344925,0.14923982,0.46982157,0.7475823,0.26249006,-3.023829,-4.3745556,1.7027638,-0.622316,1.6567268,-6.5995545,5.688967,-0.5906767,0.92111516,0.70698005,-0.5552445,2.5448322,-0.7191873,1.0329434,-0.26833707,1.9415166,-4.3739147,-0.6282263,1.518287,-1.9022119,1.7214545,-0.37328443,0.76343,-0.6583183,-2.3577569,1.2577851,0.5818644,1.4884708
ACH-001016,1.8332139,4.1509333,-4.25386,-6.170839,-0.49097553,0.6493781,2.6816237,-3.7880497,-2.976924,3.2840192,2.2358358,-1.5355223,-3.6857984,4.911706,-0.07052323,-0.025420465,1.9229758,-2.1935358,3.374889,-1.0241153,-1.2427037,-0.2308308,4.863552,-0.19642717,0.68602467,-1.5123115,-5.0891094,-0.3606868,4.2913394,2.4716535,-1.2199187,1.2062055,0.17785907,-0.064237095,-1.2224988,-1.5427129,-2.0401065,-3.1196148,-3.9807866,1.1524544,10.417127,-1.6705085,8.040872,4.7786922,-2.6280882,3.863031,0.076921,2.5279837,3.5218568,-1.631074,1.3034538,-1.054795,-4.2771664,-2.5230875,0.053933747,-2.6082416,0.11345204,3.8570712,-1.7475215,-1.5007995,3.4322147,-1.8749712,3.8031042,3.4348664,1.1540332,2.124806,5.0678134,-4.007907,2.8875408,-1.1906193,-2.969246,3.1042085,-1.6078923,-3.7831433,-1.9674886,-0.8906979,-1.4497721,-4.4167213,3.623102,-2.5099626,0.76314306,-5.5099444,5.6274614,-0.9300183,-3.5495973,0.87989366,-0.54060036,0.913712
ACH-000282,-0.21084514,2.5837355,-9.810238,-2.5472662,-4.3831472,-3.5649786,-1.7401481,-1.6262,2.4928555,2.5763817,-3.7468145,-1.847677,-0.44733843,1.7674122,-0.32406184,1.3986367,1.537214,-0.34030032,1.5730903,-5.5467167,3.6209917,3.7604723,9.634133,-3.1300762,-0.44765365,-4.317619,-2.9824538,-0.61146206,3.409284,1.473561,0.94384545,-1.048946,-0.9242214,1.0275838,-1.1206357,-1.2152137,-2.0895638,-3.15732,1.9585118,2.9141428,7.2096157,-0.1522254,5.5095444,3.9060798,-0.56215584,2.0036035,-3.8752456,-0.94819796,1.7018358,2.8157797,2.5911694,-1.2187486,-0.67824715,4.3222065,-3.4933925,3.7765791,-0.03815529,-3.033159,-3.5790281,2.50695,-0.9656031,-1.4389873,-0.5285423,2.0596087,-2.8114452,3.5612526,-0.40824828,-6.8897877,-2.3450732,-0.7396799,1.6774703,-1.7257807,-2.0385327,-2.445394,-0.14836152,0.4129663,0.33890074,-1.8148069,0.058646858,-0.70184076,-0.020850167,-2.8107257,2.6219,1.281986,0.60262036,-0.25267735,0.63535136,-1.7885385
ACH-000722,-4.467747,8.099967,-6.792305,-7.051972,-2.2950814,1.8627523,1.6829995,-1.3086872,8.471078,-1.39259,0.058261413,-3.9293318,2.1001897,-0.4991082,2.3462908,-1.0628347,-5.713631,-3.2562277,-2.47108,1.6201817,-3.6356356,0.41561973,-6.195893,-0.019493708,1.2841101,0.8079643,3.6172829,3.2412708,-3.5482926,1.5278046,-6.8300323,0.83464813,1.8447,-3.6603956,3.6639726,2.7178385,3.3994093,5.1827602,1.8801631,-2.2697756,-1.8067037,-2.5904536,-4.3143535,1.2537531,-0.34668407,3.0528798,4.2148795,8.499257,5.6142654,0.0484713,-4.137191,2.8831506,2.3885188,5.4357862,-3.1456292,0.34039262,-1.632215,-5.772647,0.5748472,-0.12888369,-1.4607539,2.11088,-1.3681027,2.3528306,1.7257797,-0.66411144,3.607052,2.0651195,0.6773679,5.8299117,-1.4352247,-6.2367935,-0.8300242,-0.3755743,-0.44473016,-0.708841,-4.209875,2.1274562,-1.1856025,-1.3016119,-0.06486839,-2.0553682,1.7806163,0.75684875,2.3132536,-2.5358477,0.34811747,-1.7514589
ACH-000857,-3.2621677,-2.36231,-5.33611,0.4289981,-5.0747886,0.8304537,-0.6958374,0.42048332,0.65574324,-4.1349497,3.327367,5.0045905,0.9051182,0.3687417,-1.0476702,0.66302824,-5.543961,3.7031674,-0.86655456,-2.9990609,1.2919506,-1.6865869,-1.7842864,-1.9027812,-1.9986103,0.72257435,-3.008209,-1.2282158,1.025776,-0.9402171,-4.6340084,0.23211706,-0.5682984,-0.010127793,-0.010865541,-1.8997837,0.41626713,-2.871702,-1.424861,0.14656742,1.4722126,-0.19936322,0.0754063,5.278963,-1.4505446,7.6145444,-1.4211979,0.6326174,2.3202763,-0.92468995,1.8637103,-1.0887189,2.8381464,4.91021,-2.09282,-2.396169,0.60662144,-5.743099,5.4132195,-0.5934961,1.6690803,-4.7591825,0.5557621,0.9664879,0.6996398,0.6248057,4.1574683,-1.8675421,0.10992466,4.130286,-3.1145456,-0.45851558,-2.5826986,-0.42880246,-0.03404525,-0.40766394,0.55179495,-5.4750433,-4.1296816,-3.3550053,-4.379528,-2.2661207,5.8569474,3.5452805,4.0230746,1.3242639,9.535626,-3.6131835
